<?xml version="1.0"?>
<opencv_storage>
<cascade>
  <stageType>BOOST</stageType>
  <featureType>HAAR</featureType>
  <height>24</height>
  <width>24</width>
  <stageParams>
    <boostType>GAB</boostType>
    <minHitRate>9.9900001287460327e-01</minHitRate>
    <maxFalseAlarm>3.0000001192092896e-01</maxFalseAlarm>
    <weightTrimRate>9.4999999999999996e-01</weightTrimRate>
    <maxDepth>1</maxDepth>
    <maxWeakCount>100</maxWeakCount></stageParams>
  <featureParams>
    <maxCatCount>0</maxCatCount>
    <featSize>1</featSize>
    <mode>BASIC</mode></featureParams>
  <stageNum>16</stageNum>
  <stages>
    <!-- stage 0 -->
    <_>
      <maxWeakCount>14</maxWeakCount>
      <stageThreshold>-1.2030916213989258e+00</stageThreshold>
      <weakClassifiers>
        <_>
          <internalNodes>
            0 -1 673 -3.9656199514865875e-02</internalNodes>
          <leafValues>
            8.5333335399627686e-01 -4.8166665434837341e-01</leafValues></_>
        <_>
          <internalNodes>
            0 -1 639 4.3140705674886703e-02</internalNodes>
          <leafValues>
            -2.3567228019237518e-01 8.6211866140365601e-01</leafValues></_>
        <_>
          <internalNodes>
            0 -1 350 -9.9877007305622101e-02</internalNodes>
          <leafValues>
            6.1606210470199585e-01 -2.1766741573810577e-01</leafValues></_>
        <_>
          <internalNodes>
            0 -1 24 5.3042948246002197e-02</internalNodes>
          <leafValues>
            -2.6615998148918152e-01 8.6157023906707764e-01</leafValues></_>
        <_>
          <internalNodes>
            0 -1 722 1.4073105994611979e-03</internalNodes>
          <leafValues>
            2.2296035289764404e-01 -8.2985508441925049e-01</leafValues></_>
        <_>
          <internalNodes>
            0 -1 4 -3.7294663488864899e-02</internalNodes>
          <leafValues>
            6.8872570991516113e-01 -1.6078211367130280e-01</leafValues></_>
        <_>
          <internalNodes>
            0 -1 710 -6.6674966365098953e-04</internalNodes>
          <leafValues>
            -6.9098043441772461e-01 1.7035773396492004e-01</leafValues></_>
        <_>
          <internalNodes>
            0 -1 35 2.5098757818341255e-02</internalNodes>
          <leafValues>
            -1.6171133518218994e-01 6.6080427169799805e-01</leafValues></_>
        <_>
          <internalNodes>
            0 -1 54 3.3881328999996185e-03</internalNodes>
          <leafValues>
            1.4673188328742981e-01 -7.1842968463897705e-01</leafValues></_>
        <_>
          <internalNodes>
            0 -1 642 -1.7182122915983200e-02</internalNodes>
          <leafValues>
            5.1572680473327637e-01 -2.2416083514690399e-01</leafValues></_>
        <_>
          <internalNodes>
            0 -1 572 4.4650770723819733e-02</internalNodes>
          <leafValues>
            -2.0367085933685303e-01 5.5028158426284790e-01</leafValues></_>
        <_>
          <internalNodes>
            0 -1 87 3.1335838139057159e-03</internalNodes>
          <leafValues>
            1.7136327922344208e-01 -7.4986582994461060e-01</leafValues></_>
        <_>
          <internalNodes>
            0 -1 202 -2.4702114751562476e-04</internalNodes>
          <leafValues>
            -5.3259509801864624e-01 1.6620819270610809e-01</leafValues></_>
        <_>
          <internalNodes>
            0 -1 154 6.1463549733161926e-02</internalNodes>
          <leafValues>
            -1.2922155857086182e-01 8.9092200994491577e-01</leafValues></_></weakClassifiers></_>
    <!-- stage 1 -->
    <_>
      <maxWeakCount>23</maxWeakCount>
      <stageThreshold>-1.3276147842407227e+00</stageThreshold>
      <weakClassifiers>
        <_>
          <internalNodes>
            0 -1 189 -2.8749322518706322e-03</internalNodes>
          <leafValues>
            2.5203251838684082e-01 -5.5351680517196655e-01</leafValues></_>
        <_>
          <internalNodes>
            0 -1 352 -1.0462346673011780e-01</internalNodes>
          <leafValues>
            7.6003068685531616e-01 -1.9803981482982635e-01</leafValues></_>
        <_>
          <internalNodes>
            0 -1 671 -2.6677628979086876e-02</internalNodes>
          <leafValues>
            6.6986846923828125e-01 -2.1209180355072021e-01</leafValues></_>
        <_>
          <internalNodes>
            0 -1 643 1.9795179367065430e-02</internalNodes>
          <leafValues>
            -1.3633982837200165e-01 6.2779784202575684e-01</leafValues></_>
        <_>
          <internalNodes>
            0 -1 57 4.0038071572780609e-02</internalNodes>
          <leafValues>
            -1.4727210998535156e-01 5.5692636966705322e-01</leafValues></_>
        <_>
          <internalNodes>
            0 -1 56 -2.0670980215072632e-02</internalNodes>
          <leafValues>
            6.2037742137908936e-01 -1.6018112003803253e-01</leafValues></_>
        <_>
          <internalNodes>
            0 -1 334 -2.3075956851243973e-02</internalNodes>
          <leafValues>
            6.6330420970916748e-01 -1.2954989075660706e-01</leafValues></_>
        <_>
          <internalNodes>
            0 -1 82 1.7462200485169888e-03</internalNodes>
          <leafValues>
            1.5424117445945740e-01 -7.0639264583587646e-01</leafValues></_>
        <_>
          <internalNodes>
            0 -1 78 7.2868634015321732e-03</internalNodes>
          <leafValues>
            -2.2324332594871521e-01 3.7588402628898621e-01</leafValues></_>
        <_>
          <internalNodes>
            0 -1 462 -6.9024547934532166e-02</internalNodes>
          <leafValues>
            6.0495156049728394e-01 -1.6259823739528656e-01</leafValues></_>
        <_>
          <internalNodes>
            0 -1 219 2.0783910527825356e-02</internalNodes>
          <leafValues>
            -1.7462171614170074e-01 5.0851011276245117e-01</leafValues></_>
        <_>
          <internalNodes>
            0 -1 522 1.5054154209792614e-03</internalNodes>
          <leafValues>
            1.0547022521495819e-01 -7.4391078948974609e-01</leafValues></_>
        <_>
          <internalNodes>
            0 -1 42 1.4313505962491035e-02</internalNodes>
          <leafValues>
            -1.3609361648559570e-01 5.7401108741760254e-01</leafValues></_>
        <_>
          <internalNodes>
            0 -1 319 -8.1120893359184265e-02</internalNodes>
          <leafValues>
            3.6247372627258301e-01 -1.8139268457889557e-01</leafValues></_>
        <_>
          <internalNodes>
            0 -1 500 9.2485442757606506e-02</internalNodes>
          <leafValues>
            -1.2832650542259216e-01 6.3522905111312866e-01</leafValues></_>
        <_>
          <internalNodes>
            0 -1 650 1.5638412907719612e-02</internalNodes>
          <leafValues>
            -1.3728918135166168e-01 5.4855692386627197e-01</leafValues></_>
        <_>
          <internalNodes>
            0 -1 394 5.2588853985071182e-02</internalNodes>
          <leafValues>
            -1.3535477221012115e-01 5.4482877254486084e-01</leafValues></_>
        <_>
          <internalNodes>
            0 -1 139 -4.2286567389965057e-02</internalNodes>
          <leafValues>
            6.5534389019012451e-01 -1.0658513009548187e-01</leafValues></_>
        <_>
          <internalNodes>
            0 -1 103 1.0918097570538521e-02</internalNodes>
          <leafValues>
            -1.6409073770046234e-01 4.6922504901885986e-01</leafValues></_>
        <_>
          <internalNodes>
            0 -1 475 8.1520099192857742e-03</internalNodes>
          <leafValues>
            -1.3675487041473389e-01 5.5258888006210327e-01</leafValues></_>
        <_>
          <internalNodes>
            0 -1 488 -7.9661235213279724e-04</internalNodes>
          <leafValues>
            -5.4389929771423340e-01 1.6138863563537598e-01</leafValues></_>
        <_>
          <internalNodes>
            0 -1 310 -1.7701365053653717e-02</internalNodes>
          <leafValues>
            4.7761279344558716e-01 -1.7588579654693604e-01</leafValues></_>
        <_>
          <internalNodes>
            0 -1 453 7.1028951788321137e-04</internalNodes>
          <leafValues>
            1.5911772847175598e-01 -5.5721938610076904e-01</leafValues></_></weakClassifiers></_>
    <!-- stage 2 -->
    <_>
      <maxWeakCount>29</maxWeakCount>
      <stageThreshold>-1.2513442039489746e+00</stageThreshold>
      <weakClassifiers>
        <_>
          <internalNodes>
            0 -1 273 -1.2996067106723785e-01</internalNodes>
          <leafValues>
            4.0566039085388184e-01 -4.7100174427032471e-01</leafValues></_>
        <_>
          <internalNodes>
            0 -1 106 1.0420030914247036e-02</internalNodes>
          <leafValues>
            -2.8389185667037964e-01 4.8978221416473389e-01</leafValues></_>
        <_>
          <internalNodes>
            0 -1 353 1.5417736768722534e-01</internalNodes>
          <leafValues>
            -2.2411772608757019e-01 3.5955271124839783e-01</leafValues></_>
        <_>
          <internalNodes>
            0 -1 699 3.0578314326703548e-03</internalNodes>
          <leafValues>
            -1.2472426146268845e-01 5.0536113977432251e-01</leafValues></_>
        <_>
          <internalNodes>
            0 -1 516 2.9272967949509621e-03</internalNodes>
          <leafValues>
            -1.5354926884174347e-01 4.7268170118331909e-01</leafValues></_>
        <_>
          <internalNodes>
            0 -1 514 -4.7853859141469002e-03</internalNodes>
          <leafValues>
            4.7511938214302063e-01 -1.5133750438690186e-01</leafValues></_>
        <_>
          <internalNodes>
            0 -1 26 2.0451964437961578e-01</internalNodes>
          <leafValues>
            1.0757973045110703e-01 -7.1405076980590820e-01</leafValues></_>
        <_>
          <internalNodes>
            0 -1 13 -1.0321013629436493e-01</internalNodes>
          <leafValues>
            -6.1649596691131592e-01 1.6021785140037537e-01</leafValues></_>
        <_>
          <internalNodes>
            0 -1 537 3.1077496707439423e-02</internalNodes>
          <leafValues>
            -1.2482326477766037e-01 6.2750881910324097e-01</leafValues></_>
        <_>
          <internalNodes>
            0 -1 204 -6.9044400006532669e-03</internalNodes>
          <leafValues>
            5.2565425634384155e-01 -1.3421307504177094e-01</leafValues></_>
        <_>
          <internalNodes>
            0 -1 375 7.3650490958243608e-04</internalNodes>
          <leafValues>
            -1.0009429603815079e-01 4.9796503782272339e-01</leafValues></_>
        <_>
          <internalNodes>
            0 -1 682 -2.8854791074991226e-02</internalNodes>
          <leafValues>
            5.3296566009521484e-01 -1.0466316342353821e-01</leafValues></_>
        <_>
          <internalNodes>
            0 -1 282 -2.6857531629502773e-03</internalNodes>
          <leafValues>
            3.3066913485527039e-01 -1.7296281456947327e-01</leafValues></_>
        <_>
          <internalNodes>
            0 -1 97 3.1405292451381683e-02</internalNodes>
          <leafValues>
            -1.3652276992797852e-01 3.7953215837478638e-01</leafValues></_>
        <_>
          <internalNodes>
            0 -1 25 -1.9081421196460724e-02</internalNodes>
          <leafValues>
            4.4611570239067078e-01 -1.5280735492706299e-01</leafValues></_>
        <_>
          <internalNodes>
            0 -1 309 4.9347274005413055e-02</internalNodes>
          <leafValues>
            -9.7603842616081238e-02 5.9390914440155029e-01</leafValues></_>
        <_>
          <internalNodes>
            0 -1 458 5.3506898693740368e-03</internalNodes>
          <leafValues>
            1.1010548472404480e-01 -6.0315650701522827e-01</leafValues></_>
        <_>
          <internalNodes>
            0 -1 429 -3.4177511930465698e-02</internalNodes>
          <leafValues>
            5.4391342401504517e-01 -1.2828250229358673e-01</leafValues></_>
        <_>
          <internalNodes>
            0 -1 50 -2.5332089513540268e-02</internalNodes>
          <leafValues>
            6.4584374427795410e-01 -8.6249768733978271e-02</leafValues></_>
        <_>
          <internalNodes>
            0 -1 392 2.2682212293148041e-03</internalNodes>
          <leafValues>
            1.1852867901325226e-01 -5.5427825450897217e-01</leafValues></_>
        <_>
          <internalNodes>
            0 -1 339 2.8980462811887264e-03</internalNodes>
          <leafValues>
            -1.5631926059722900e-01 4.3032869696617126e-01</leafValues></_>
        <_>
          <internalNodes>
            0 -1 704 1.4322588685899973e-03</internalNodes>
          <leafValues>
            1.2228922545909882e-01 -5.0211006402969360e-01</leafValues></_>
        <_>
          <internalNodes>
            0 -1 61 1.1926697567105293e-02</internalNodes>
          <leafValues>
            -1.7654764652252197e-01 3.7241089344024658e-01</leafValues></_>
        <_>
          <internalNodes>
            0 -1 212 1.9606638699769974e-02</internalNodes>
          <leafValues>
            -1.8256250023841858e-01 3.4494507312774658e-01</leafValues></_>
        <_>
          <internalNodes>
            0 -1 329 2.1162875927984715e-03</internalNodes>
          <leafValues>
            -1.8185141682624817e-01 3.9519616961479187e-01</leafValues></_>
        <_>
          <internalNodes>
            0 -1 358 -3.5523526370525360e-02</internalNodes>
          <leafValues>
            5.8046191930770874e-01 -1.2207937240600586e-01</leafValues></_>
        <_>
          <internalNodes>
            0 -1 233 -3.8015933241695166e-03</internalNodes>
          <leafValues>
            6.1764162778854370e-01 -8.6313113570213318e-02</leafValues></_>
        <_>
          <internalNodes>
            0 -1 90 -2.3605779279023409e-04</internalNodes>
          <leafValues>
            -3.7599009275436401e-01 1.7169088125228882e-01</leafValues></_>
        <_>
          <internalNodes>
            0 -1 496 -4.3036598712205887e-02</internalNodes>
          <leafValues>
            3.5800865292549133e-01 -1.8070784211158752e-01</leafValues></_></weakClassifiers></_>
    <!-- stage 3 -->
    <_>
      <maxWeakCount>31</maxWeakCount>
      <stageThreshold>-9.9135589599609375e-01</stageThreshold>
      <weakClassifiers>
        <_>
          <internalNodes>
            0 -1 18 5.5166687816381454e-03</internalNodes>
          <leafValues>
            -3.9810428023338318e-01 6.4285713434219360e-01</leafValues></_>
        <_>
          <internalNodes>
            0 -1 433 -4.9188616685569286e-03</internalNodes>
          <leafValues>
            -6.5094381570816040e-01 8.5228763520717621e-02</leafValues></_>
        <_>
          <internalNodes>
            0 -1 405 -5.6172544136643410e-03</internalNodes>
          <leafValues>
            6.8386399745941162e-01 -8.5373908281326294e-02</leafValues></_>
        <_>
          <internalNodes>
            0 -1 552 1.1377749033272266e-03</internalNodes>
          <leafValues>
            2.0554824173450470e-01 -3.5576993227005005e-01</leafValues></_>
        <_>
          <internalNodes>
            0 -1 426 9.3829914927482605e-02</internalNodes>
          <leafValues>
            -1.8321338295936584e-01 4.0953075885772705e-01</leafValues></_>
        <_>
          <internalNodes>
            0 -1 666 -9.8070781677961349e-03</internalNodes>
          <leafValues>
            7.2575122117996216e-01 -7.5762242078781128e-02</leafValues></_>
        <_>
          <internalNodes>
            0 -1 669 7.0240581408143044e-03</internalNodes>
          <leafValues>
            -1.4642521739006042e-01 5.6570875644683838e-01</leafValues></_>
        <_>
          <internalNodes>
            0 -1 318 -6.6903613507747650e-02</internalNodes>
          <leafValues>
            5.5419814586639404e-01 -1.1124111711978912e-01</leafValues></_>
        <_>
          <internalNodes>
            0 -1 724 -1.5237522311508656e-03</internalNodes>
          <leafValues>
            -5.4791861772537231e-01 1.2059462070465088e-01</leafValues></_>
        <_>
          <internalNodes>
            0 -1 305 -7.8130332985892892e-04</internalNodes>
          <leafValues>
            4.9901804327964783e-01 -1.3642774522304535e-01</leafValues></_>
        <_>
          <internalNodes>
            0 -1 497 3.1412381213158369e-04</internalNodes>
          <leafValues>
            2.1224159002304077e-01 -3.0717551708221436e-01</leafValues></_>
        <_>
          <internalNodes>
            0 -1 276 1.9699953496456146e-02</internalNodes>
          <leafValues>
            -1.2551596760749817e-01 5.1757341623306274e-01</leafValues></_>
        <_>
          <internalNodes>
            0 -1 111 5.9661986306309700e-03</internalNodes>
          <leafValues>
            -1.7058931291103363e-01 3.7906974554061890e-01</leafValues></_>
        <_>
          <internalNodes>
            0 -1 257 -3.0581355094909668e-02</internalNodes>
          <leafValues>
            -5.2830266952514648e-01 1.2537378072738647e-01</leafValues></_>
        <_>
          <internalNodes>
            0 -1 336 -6.0884556733071804e-03</internalNodes>
          <leafValues>
            4.5181545615196228e-01 -1.3551498949527740e-01</leafValues></_>
        <_>
          <internalNodes>
            0 -1 411 4.3761478736996651e-03</internalNodes>
          <leafValues>
            -1.1564764380455017e-01 5.2053278684616089e-01</leafValues></_>
        <_>
          <internalNodes>
            0 -1 0 3.6149460356682539e-04</internalNodes>
          <leafValues>
            1.4819571375846863e-01 -4.1599091887474060e-01</leafValues></_>
        <_>
          <internalNodes>
            0 -1 383 3.7765824235975742e-03</internalNodes>
          <leafValues>
            -1.3661652803421021e-01 4.4651842117309570e-01</leafValues></_>
        <_>
          <internalNodes>
            0 -1 0 -3.1035856227390468e-04</internalNodes>
          <leafValues>
            -3.9174765348434448e-01 1.4192733168601990e-01</leafValues></_>
        <_>
          <internalNodes>
            0 -1 29 -1.6661431873217225e-03</internalNodes>
          <leafValues>
            5.3616458177566528e-01 -1.0401998460292816e-01</leafValues></_>
        <_>
          <internalNodes>
            0 -1 713 4.2668517562560737e-04</internalNodes>
          <leafValues>
            1.5319138765335083e-01 -3.9372599124908447e-01</leafValues></_>
        <_>
          <internalNodes>
            0 -1 100 -2.1856060251593590e-02</internalNodes>
          <leafValues>
            5.3620362281799316e-01 -1.1113247275352478e-01</leafValues></_>
        <_>
          <internalNodes>
            0 -1 561 -1.6518068313598633e-01</internalNodes>
          <leafValues>
            -8.4592258930206299e-01 7.5959637761116028e-02</leafValues></_>
        <_>
          <internalNodes>
            0 -1 390 -2.9035095940344036e-04</internalNodes>
          <leafValues>
            -4.1580504179000854e-01 1.2061695009469986e-01</leafValues></_>
        <_>
          <internalNodes>
            0 -1 17 3.9354771375656128e-02</internalNodes>
          <leafValues>
            -1.6431400179862976e-01 3.6839514970779419e-01</leafValues></_>
        <_>
          <internalNodes>
            0 -1 12 -2.3383826017379761e-02</internalNodes>
          <leafValues>
            -5.0128167867660522e-01 1.2322030216455460e-01</leafValues></_>
        <_>
          <internalNodes>
            0 -1 126 -1.7193150706589222e-03</internalNodes>
          <leafValues>
            -6.4006233215332031e-01 7.1955427527427673e-02</leafValues></_>
        <_>
          <internalNodes>
            0 -1 270 -2.1098814904689789e-03</internalNodes>
          <leafValues>
            2.6279991865158081e-01 -2.1654102206230164e-01</leafValues></_>
        <_>
          <internalNodes>
            0 -1 641 -1.5710584819316864e-02</internalNodes>
          <leafValues>
            4.0422058105468750e-01 -1.3135808706283569e-01</leafValues></_>
        <_>
          <internalNodes>
            0 -1 646 1.7409805208444595e-02</internalNodes>
          <leafValues>
            -1.4959181845188141e-01 3.9577999711036682e-01</leafValues></_>
        <_>
          <internalNodes>
            0 -1 456 -2.6955810608342290e-04</internalNodes>
          <leafValues>
            -3.2749113440513611e-01 1.6444858908653259e-01</leafValues></_></weakClassifiers></_>
    <!-- stage 4 -->
    <_>
      <maxWeakCount>36</maxWeakCount>
      <stageThreshold>-1.0632646083831787e+00</stageThreshold>
      <weakClassifiers>
        <_>
          <internalNodes>
            0 -1 34 3.8911826908588409e-02</internalNodes>
          <leafValues>
            -4.1049125790596008e-01 2.8859061002731323e-01</leafValues></_>
        <_>
          <internalNodes>
            0 -1 271 -7.9934209585189819e-02</internalNodes>
          <leafValues>
            4.6359023451805115e-01 -1.6983355581760406e-01</leafValues></_>
        <_>
          <internalNodes>
            0 -1 630 2.7600411325693130e-02</internalNodes>
          <leafValues>
            -1.2240792065858841e-01 4.1410663723945618e-01</leafValues></_>
        <_>
          <internalNodes>
            0 -1 548 -2.6652507949620485e-04</internalNodes>
          <leafValues>
            -3.9416116476058960e-01 1.4315100014209747e-01</leafValues></_>
        <_>
          <internalNodes>
            0 -1 548 4.9466610653325915e-04</internalNodes>
          <leafValues>
            1.0516354441642761e-01 -4.6046015620231628e-01</leafValues></_>
        <_>
          <internalNodes>
            0 -1 109 -3.5659105051308870e-03</internalNodes>
          <leafValues>
            3.4545570611953735e-01 -1.3562054932117462e-01</leafValues></_>
        <_>
          <internalNodes>
            0 -1 546 -8.8597682770341635e-04</internalNodes>
          <leafValues>
            -5.3394562005996704e-01 1.3145816326141357e-01</leafValues></_>
        <_>
          <internalNodes>
            0 -1 581 -3.0446241726167500e-04</internalNodes>
          <leafValues>
            2.3725557327270508e-01 -2.1309661865234375e-01</leafValues></_>
        <_>
          <internalNodes>
            0 -1 547 5.0314806867390871e-04</internalNodes>
          <leafValues>
            1.2439461797475815e-01 -4.1969153285026550e-01</leafValues></_>
        <_>
          <internalNodes>
            0 -1 304 -5.5380864068865776e-03</internalNodes>
          <leafValues>
            4.3515187501907349e-01 -1.3185007870197296e-01</leafValues></_>
        <_>
          <internalNodes>
            0 -1 302 -9.9014658480882645e-03</internalNodes>
          <leafValues>
            3.0032801628112793e-01 -1.8654158711433411e-01</leafValues></_>
        <_>
          <internalNodes>
            0 -1 314 1.3780654408037663e-03</internalNodes>
          <leafValues>
            9.8119519650936127e-02 -4.8802146315574646e-01</leafValues></_>
        <_>
          <internalNodes>
            0 -1 542 -3.6203959025442600e-03</internalNodes>
          <leafValues>
            -7.4309772253036499e-01 6.4801536500453949e-02</leafValues></_>
        <_>
          <internalNodes>
            0 -1 278 -1.0260462295264006e-03</internalNodes>
          <leafValues>
            3.3034983277320862e-01 -1.5761123597621918e-01</leafValues></_>
        <_>
          <internalNodes>
            0 -1 371 -6.9460235536098480e-03</internalNodes>
          <leafValues>
            4.8104903101921082e-01 -1.0986153036355972e-01</leafValues></_>
        <_>
          <internalNodes>
            0 -1 66 1.8101669847965240e-02</internalNodes>
          <leafValues>
            9.7031876444816589e-02 -5.2637726068496704e-01</leafValues></_>
        <_>
          <internalNodes>
            0 -1 316 -2.2788395290262997e-04</internalNodes>
          <leafValues>
            -3.2865911722183228e-01 1.3971988856792450e-01</leafValues></_>
        <_>
          <internalNodes>
            0 -1 421 5.6096678599715233e-03</internalNodes>
          <leafValues>
            -9.1325178742408752e-02 6.2930750846862793e-01</leafValues></_>
        <_>
          <internalNodes>
            0 -1 69 1.0442123562097549e-01</internalNodes>
          <leafValues>
            -1.1540009081363678e-01 4.5647135376930237e-01</leafValues></_>
        <_>
          <internalNodes>
            0 -1 88 2.6151924394071102e-03</internalNodes>
          <leafValues>
            1.0223572701215744e-01 -6.3585716485977173e-01</leafValues></_>
        <_>
          <internalNodes>
            0 -1 541 -9.7212981199845672e-04</internalNodes>
          <leafValues>
            5.1625037193298340e-01 -1.2491153925657272e-01</leafValues></_>
        <_>
          <internalNodes>
            0 -1 84 -1.3318979181349277e-03</internalNodes>
          <leafValues>
            -9.0430563688278198e-01 5.5889751762151718e-02</leafValues></_>
        <_>
          <internalNodes>
            0 -1 430 -2.4078955873847008e-02</internalNodes>
          <leafValues>
            3.1231278181076050e-01 -1.7070224881172180e-01</leafValues></_>
        <_>
          <internalNodes>
            0 -1 119 1.3729569315910339e-01</internalNodes>
          <leafValues>
            7.9005189239978790e-02 -6.7576128244400024e-01</leafValues></_>
        <_>
          <internalNodes>
            0 -1 58 -1.6034811735153198e-01</internalNodes>
          <leafValues>
            -8.6211055517196655e-01 4.1339386254549026e-02</leafValues></_>
        <_>
          <internalNodes>
            0 -1 378 -2.6743118651211262e-03</internalNodes>
          <leafValues>
            3.4073710441589355e-01 -1.5305311977863312e-01</leafValues></_>
        <_>
          <internalNodes>
            0 -1 711 1.4413651078939438e-03</internalNodes>
          <leafValues>
            8.2956865429878235e-02 -6.0679483413696289e-01</leafValues></_>
        <_>
          <internalNodes>
            0 -1 260 2.6855107862502337e-03</internalNodes>
          <leafValues>
            -1.7871272563934326e-01 3.3123856782913208e-01</leafValues></_>
        <_>
          <internalNodes>
            0 -1 134 -2.8141407528892159e-04</internalNodes>
          <leafValues>
            -3.6242839694023132e-01 1.3236968219280243e-01</leafValues></_>
        <_>
          <internalNodes>
            0 -1 91 1.9172229804098606e-03</internalNodes>
          <leafValues>
            1.2809373438358307e-01 -5.3849136829376221e-01</leafValues></_>
        <_>
          <internalNodes>
            0 -1 51 -4.2443707585334778e-02</internalNodes>
          <leafValues>
            5.9522598981857300e-01 -9.1142363846302032e-02</leafValues></_>
        <_>
          <internalNodes>
            0 -1 634 -7.3192194104194641e-02</internalNodes>
          <leafValues>
            4.6469184756278992e-01 -1.1042118072509766e-01</leafValues></_>
        <_>
          <internalNodes>
            0 -1 725 2.9061600798740983e-04</internalNodes>
          <leafValues>
            1.4543247222900391e-01 -3.3017054200172424e-01</leafValues></_>
        <_>
          <internalNodes>
            0 -1 194 7.6989026274532080e-04</internalNodes>
          <leafValues>
            -1.7372195422649384e-01 2.9561209678649902e-01</leafValues></_>
        <_>
          <internalNodes>
            0 -1 452 1.9957739859819412e-03</internalNodes>
          <leafValues>
            -1.3031674921512604e-01 3.8101771473884583e-01</leafValues></_>
        <_>
          <internalNodes>
            0 -1 520 8.8436733931303024e-03</internalNodes>
          <leafValues>
            9.4130493700504303e-02 -6.1367666721343994e-01</leafValues></_></weakClassifiers></_>
    <!-- stage 5 -->
    <_>
      <maxWeakCount>43</maxWeakCount>
      <stageThreshold>-1.1707448959350586e+00</stageThreshold>
      <weakClassifiers>
        <_>
          <internalNodes>
            0 -1 444 2.0448367577046156e-03</internalNodes>
          <leafValues>
            -4.3878462910652161e-01 1.7748917639255524e-01</leafValues></_>
        <_>
          <internalNodes>
            0 -1 241 1.3261057902127504e-03</internalNodes>
          <leafValues>
            -1.0130911320447922e-01 6.3598275184631348e-01</leafValues></_>
        <_>
          <internalNodes>
            0 -1 640 8.0455443821847439e-05</internalNodes>
          <leafValues>
            -2.2171226143836975e-01 2.1099215745925903e-01</leafValues></_>
        <_>
          <internalNodes>
            0 -1 207 6.0387134552001953e-02</internalNodes>
          <leafValues>
            -1.1198911815881729e-01 4.3732362985610962e-01</leafValues></_>
        <_>
          <internalNodes>
            0 -1 624 -3.2719545066356659e-02</internalNodes>
          <leafValues>
            5.0040936470031738e-01 -1.1181594431400299e-01</leafValues></_>
        <_>
          <internalNodes>
            0 -1 315 -7.1339190006256104e-02</internalNodes>
          <leafValues>
            2.6334926486015320e-01 -1.6966705024242401e-01</leafValues></_>
        <_>
          <internalNodes>
            0 -1 401 1.1261647939682007e-01</internalNodes>
          <leafValues>
            8.7670810520648956e-02 -5.7000726461410522e-01</leafValues></_>
        <_>
          <internalNodes>
            0 -1 576 2.4273034650832415e-03</internalNodes>
          <leafValues>
            -7.4330762028694153e-02 5.4167026281356812e-01</leafValues></_>
        <_>
          <internalNodes>
            0 -1 715 3.5767996450886130e-04</internalNodes>
          <leafValues>
            1.1622164398431778e-01 -4.0489763021469116e-01</leafValues></_>
        <_>
          <internalNodes>
            0 -1 600 -7.4369262438267469e-04</internalNodes>
          <leafValues>
            4.6416303515434265e-01 -1.0272064805030823e-01</leafValues></_>
        <_>
          <internalNodes>
            0 -1 85 -1.4677547151222825e-03</internalNodes>
          <leafValues>
            -4.2666244506835938e-01 1.2310471385717392e-01</leafValues></_>
        <_>
          <internalNodes>
            0 -1 412 1.5187134267762303e-03</internalNodes>
          <leafValues>
            -9.7263723611831665e-02 5.4046565294265747e-01</leafValues></_>
        <_>
          <internalNodes>
            0 -1 351 1.4801338315010071e-01</internalNodes>
          <leafValues>
            -1.0123975574970245e-01 4.2735528945922852e-01</leafValues></_>
        <_>
          <internalNodes>
            0 -1 238 -8.8944546878337860e-02</internalNodes>
          <leafValues>
            2.9503908753395081e-01 -1.9089025259017944e-01</leafValues></_>
        <_>
          <internalNodes>
            0 -1 191 1.3027038425207138e-02</internalNodes>
          <leafValues>
            -7.9343408346176147e-02 5.9511476755142212e-01</leafValues></_>
        <_>
          <internalNodes>
            0 -1 176 -1.0726460459409282e-05</internalNodes>
          <leafValues>
            2.5983256101608276e-01 -1.8471914529800415e-01</leafValues></_>
        <_>
          <internalNodes>
            0 -1 138 -9.3092530732974410e-04</internalNodes>
          <leafValues>
            -4.4160696864128113e-01 1.1934524774551392e-01</leafValues></_>
        <_>
          <internalNodes>
            0 -1 102 -1.7498830333352089e-02</internalNodes>
          <leafValues>
            2.7771094441413879e-01 -2.0330074429512024e-01</leafValues></_>
        <_>
          <internalNodes>
            0 -1 698 7.4380496516823769e-03</internalNodes>
          <leafValues>
            -9.6319474279880524e-02 5.7617771625518799e-01</leafValues></_>
        <_>
          <internalNodes>
            0 -1 179 3.2041156373452395e-05</internalNodes>
          <leafValues>
            -2.1774585545063019e-01 2.1482411026954651e-01</leafValues></_>
        <_>
          <internalNodes>
            0 -1 239 8.5685756057500839e-03</internalNodes>
          <leafValues>
            7.2116442024707794e-02 -6.4813143014907837e-01</leafValues></_>
        <_>
          <internalNodes>
            0 -1 685 -4.9580191262066364e-04</internalNodes>
          <leafValues>
            3.9802664518356323e-01 -1.3197574019432068e-01</leafValues></_>
        <_>
          <internalNodes>
            0 -1 151 -6.4145803451538086e-02</internalNodes>
          <leafValues>
            -7.8962165117263794e-01 6.5449222922325134e-02</leafValues></_>
        <_>
          <internalNodes>
            0 -1 397 6.9383040070533752e-02</internalNodes>
          <leafValues>
            -1.1669834703207016e-01 4.3622437119483948e-01</leafValues></_>
        <_>
          <internalNodes>
            0 -1 199 1.8672116566449404e-03</internalNodes>
          <leafValues>
            -9.0947985649108887e-02 5.0364625453948975e-01</leafValues></_>
        <_>
          <internalNodes>
            0 -1 67 3.2133158296346664e-02</internalNodes>
          <leafValues>
            1.4377309381961823e-01 -3.4154766798019409e-01</leafValues></_>
        <_>
          <internalNodes>
            0 -1 409 -1.9229464232921600e-03</internalNodes>
          <leafValues>
            3.6970332264900208e-01 -1.3894802331924438e-01</leafValues></_>
        <_>
          <internalNodes>
            0 -1 80 -3.8301129825413227e-03</internalNodes>
          <leafValues>
            -5.0595700740814209e-01 9.9875487387180328e-02</leafValues></_>
        <_>
          <internalNodes>
            0 -1 132 1.2184965271444526e-05</internalNodes>
          <leafValues>
            -2.0821794867515564e-01 2.2923120856285095e-01</leafValues></_>
        <_>
          <internalNodes>
            0 -1 707 1.5123913726711180e-05</internalNodes>
          <leafValues>
            -1.9316777586936951e-01 2.2858516871929169e-01</leafValues></_>
        <_>
          <internalNodes>
            0 -1 317 6.6461889073252678e-03</internalNodes>
          <leafValues>
            1.1275283247232437e-01 -4.0450674295425415e-01</leafValues></_>
        <_>
          <internalNodes>
            0 -1 474 1.7747739329934120e-03</internalNodes>
          <leafValues>
            -1.1801321059465408e-01 4.1889998316764832e-01</leafValues></_>
        <_>
          <internalNodes>
            0 -1 484 -2.0163762383162975e-03</internalNodes>
          <leafValues>
            -7.2877269983291626e-01 6.2704280018806458e-02</leafValues></_>
        <_>
          <internalNodes>
            0 -1 253 -1.0219609737396240e-01</internalNodes>
          <leafValues>
            -7.2624409198760986e-01 4.9641780555248260e-02</leafValues></_>
        <_>
          <internalNodes>
            0 -1 122 -2.1588937379419804e-03</internalNodes>
          <leafValues>
            3.4961342811584473e-01 -1.4105392992496490e-01</leafValues></_>
        <_>
          <internalNodes>
            0 -1 15 -6.9021228700876236e-03</internalNodes>
          <leafValues>
            4.9745425581932068e-01 -9.4608843326568604e-02</leafValues></_>
        <_>
          <internalNodes>
            0 -1 386 8.5300637874752283e-04</internalNodes>
          <leafValues>
            9.4352841377258301e-02 -4.7850248217582703e-01</leafValues></_>
        <_>
          <internalNodes>
            0 -1 338 8.1539241364225745e-05</internalNodes>
          <leafValues>
            -2.0935130119323730e-01 2.0770160853862762e-01</leafValues></_>
        <_>
          <internalNodes>
            0 -1 415 1.0136628989130259e-03</internalNodes>
          <leafValues>
            -1.0996729135513306e-01 4.6023383736610413e-01</leafValues></_>
        <_>
          <internalNodes>
            0 -1 250 1.1687899939715862e-02</internalNodes>
          <leafValues>
            9.8167464137077332e-02 -4.5790645480155945e-01</leafValues></_>
        <_>
          <internalNodes>
            0 -1 307 -4.1882172226905823e-03</internalNodes>
          <leafValues>
            3.9265555143356323e-01 -1.1425786465406418e-01</leafValues></_>
        <_>
          <internalNodes>
            0 -1 583 2.2269982844591141e-02</internalNodes>
          <leafValues>
            8.4549456834793091e-02 -5.7098197937011719e-01</leafValues></_>
        <_>
          <internalNodes>
            0 -1 368 -1.0726460459409282e-05</internalNodes>
          <leafValues>
            2.1286775171756744e-01 -2.2231349349021912e-01</leafValues></_></weakClassifiers></_>
    <!-- stage 6 -->
    <_>
      <maxWeakCount>48</maxWeakCount>
      <stageThreshold>-1.0877586603164673e+00</stageThreshold>
      <weakClassifiers>
        <_>
          <internalNodes>
            0 -1 512 2.0109303295612335e-02</internalNodes>
          <leafValues>
            -3.8694268465042114e-01 3.8297873735427856e-01</leafValues></_>
        <_>
          <internalNodes>
            0 -1 267 6.1865116003900766e-04</internalNodes>
          <leafValues>
            7.2948753833770752e-02 -5.0354349613189697e-01</leafValues></_>
        <_>
          <internalNodes>
            0 -1 22 1.8333315849304199e-02</internalNodes>
          <leafValues>
            -1.1875598877668381e-01 3.9091810584068298e-01</leafValues></_>
        <_>
          <internalNodes>
            0 -1 461 -3.2090410590171814e-02</internalNodes>
          <leafValues>
            5.1915830373764038e-01 -8.2079119980335236e-02</leafValues></_>
        <_>
          <internalNodes>
            0 -1 268 -5.8594380971044302e-04</internalNodes>
          <leafValues>
            -3.4697419404983521e-01 1.5591828525066376e-01</leafValues></_>
        <_>
          <internalNodes>
            0 -1 696 -8.7214764207601547e-03</internalNodes>
          <leafValues>
            4.8667839169502258e-01 -1.2912900745868683e-01</leafValues></_>
        <_>
          <internalNodes>
            0 -1 384 -1.9921828061342239e-03</internalNodes>
          <leafValues>
            -5.7506930828094482e-01 1.1691262573003769e-01</leafValues></_>
        <_>
          <internalNodes>
            0 -1 76 -9.4417901709675789e-04</internalNodes>
          <leafValues>
            -6.9445717334747314e-01 3.5831194370985031e-02</leafValues></_>
        <_>
          <internalNodes>
            0 -1 324 -9.9270127248018980e-04</internalNodes>
          <leafValues>
            -4.5620140433311462e-01 7.9021401703357697e-02</leafValues></_>
        <_>
          <internalNodes>
            0 -1 591 -1.4903174713253975e-02</internalNodes>
          <leafValues>
            3.0608838796615601e-01 -1.2723101675510406e-01</leafValues></_>
        <_>
          <internalNodes>
            0 -1 595 -5.4094633087515831e-03</internalNodes>
          <leafValues>
            -9.0465772151947021e-01 3.6153383553028107e-02</leafValues></_>
        <_>
          <internalNodes>
            0 -1 574 9.1581081505864859e-04</internalNodes>
          <leafValues>
            -1.0762609541416168e-01 4.0717381238937378e-01</leafValues></_>
        <_>
          <internalNodes>
            0 -1 680 2.6912024244666100e-02</internalNodes>
          <leafValues>
            -8.0421581864356995e-02 4.8226177692413330e-01</leafValues></_>
        <_>
          <internalNodes>
            0 -1 720 5.8524752967059612e-04</internalNodes>
          <leafValues>
            1.0545375198125839e-01 -3.8995900750160217e-01</leafValues></_>
        <_>
          <internalNodes>
            0 -1 237 4.0280744433403015e-03</internalNodes>
          <leafValues>
            -1.6528292000293732e-01 2.7657523751258850e-01</leafValues></_>
        <_>
          <internalNodes>
            0 -1 612 -1.3947286643087864e-03</internalNodes>
          <leafValues>
            -4.1852045059204102e-01 1.0778903961181641e-01</leafValues></_>
        <_>
          <internalNodes>
            0 -1 538 -2.4734312668442726e-02</internalNodes>
          <leafValues>
            -6.0271245241165161e-01 6.4256176352500916e-02</leafValues></_>
        <_>
          <internalNodes>
            0 -1 288 7.1515426039695740e-02</internalNodes>
          <leafValues>
            8.5819363594055176e-02 -4.8537179827690125e-01</leafValues></_>
        <_>
          <internalNodes>
            0 -1 448 6.8050194531679153e-03</internalNodes>
          <leafValues>
            -9.2123143374919891e-02 5.1800870895385742e-01</leafValues></_>
        <_>
          <internalNodes>
            0 -1 211 -1.7157377675175667e-02</internalNodes>
          <leafValues>
            3.1757426261901855e-01 -1.1594793945550919e-01</leafValues></_>
        <_>
          <internalNodes>
            0 -1 104 6.4334697090089321e-03</internalNodes>
          <leafValues>
            1.4018230140209198e-01 -2.9174420237541199e-01</leafValues></_>
        <_>
          <internalNodes>
            0 -1 140 -8.1103250384330750e-02</internalNodes>
          <leafValues>
            -8.6371362209320068e-01 4.0461663156747818e-02</leafValues></_>
        <_>
          <internalNodes>
            0 -1 457 1.2874805834144354e-03</internalNodes>
          <leafValues>
            7.7727250754833221e-02 -4.2907598614692688e-01</leafValues></_>
        <_>
          <internalNodes>
            0 -1 120 -9.1988146305084229e-02</internalNodes>
          <leafValues>
            -6.4633250236511230e-01 6.0311101377010345e-02</leafValues></_>
        <_>
          <internalNodes>
            0 -1 382 4.3817614205181599e-03</internalNodes>
          <leafValues>
            -1.0635701566934586e-01 3.9717304706573486e-01</leafValues></_>
        <_>
          <internalNodes>
            0 -1 388 -3.1075375154614449e-03</internalNodes>
          <leafValues>
            -4.8052197694778442e-01 7.7154748141765594e-02</leafValues></_>
        <_>
          <internalNodes>
            0 -1 476 3.4104525111615658e-03</internalNodes>
          <leafValues>
            -1.3820675015449524e-01 3.0044031143188477e-01</leafValues></_>
        <_>
          <internalNodes>
            0 -1 146 1.9269581884145737e-02</internalNodes>
          <leafValues>
            -5.6015200912952423e-02 6.6272509098052979e-01</leafValues></_>
        <_>
          <internalNodes>
            0 -1 68 2.0403496455401182e-03</internalNodes>
          <leafValues>
            7.1917638182640076e-02 -6.2873184680938721e-01</leafValues></_>
        <_>
          <internalNodes>
            0 -1 375 -1.5167633537203074e-03</internalNodes>
          <leafValues>
            6.4962935447692871e-01 -7.2054624557495117e-02</leafValues></_>
        <_>
          <internalNodes>
            0 -1 99 -4.6081487089395523e-03</internalNodes>
          <leafValues>
            3.9406070113182068e-01 -9.2583738267421722e-02</leafValues></_>
        <_>
          <internalNodes>
            0 -1 661 -4.1610311716794968e-02</internalNodes>
          <leafValues>
            -8.7825781106948853e-01 4.3128114193677902e-02</leafValues></_>
        <_>
          <internalNodes>
            0 -1 259 2.2711826022714376e-04</internalNodes>
          <leafValues>
            -1.8334950506687164e-01 2.2560815513134003e-01</leafValues></_>
        <_>
          <internalNodes>
            0 -1 554 5.0636357627809048e-03</internalNodes>
          <leafValues>
            1.3856053352355957e-01 -3.0510866641998291e-01</leafValues></_>
        <_>
          <internalNodes>
            0 -1 75 5.3012613207101822e-03</internalNodes>
          <leafValues>
            4.2412716895341873e-02 -8.6341881752014160e-01</leafValues></_>
        <_>
          <internalNodes>
            0 -1 481 3.1503071077167988e-03</internalNodes>
          <leafValues>
            -8.1247180700302124e-02 5.4943311214447021e-01</leafValues></_>
        <_>
          <internalNodes>
            0 -1 530 -3.2176647800952196e-04</internalNodes>
          <leafValues>
            -3.2987269759178162e-01 1.1981040239334106e-01</leafValues></_>
        <_>
          <internalNodes>
            0 -1 525 -1.2037957087159157e-02</internalNodes>
          <leafValues>
            2.7861121296882629e-01 -1.4931362867355347e-01</leafValues></_>
        <_>
          <internalNodes>
            0 -1 586 -2.3580128327012062e-03</internalNodes>
          <leafValues>
            2.6872760057449341e-01 -1.5410476922988892e-01</leafValues></_>
        <_>
          <internalNodes>
            0 -1 262 -1.1435642372816801e-03</internalNodes>
          <leafValues>
            5.8800131082534790e-01 -6.6463932394981384e-02</leafValues></_>
        <_>
          <internalNodes>
            0 -1 227 3.1731080525787547e-05</internalNodes>
          <leafValues>
            -1.9228439033031464e-01 2.0724290609359741e-01</leafValues></_>
        <_>
          <internalNodes>
            0 -1 251 -6.9077454099897295e-05</internalNodes>
          <leafValues>
            1.7089104652404785e-01 -2.3935967683792114e-01</leafValues></_>
        <_>
          <internalNodes>
            0 -1 28 1.6675522783771157e-04</internalNodes>
          <leafValues>
            1.4225253462791443e-01 -2.8849425911903381e-01</leafValues></_>
        <_>
          <internalNodes>
            0 -1 155 -1.2100952677428722e-02</internalNodes>
          <leafValues>
            -5.9965735673904419e-01 6.4545512199401855e-02</leafValues></_>
        <_>
          <internalNodes>
            0 -1 283 -4.4574430212378502e-03</internalNodes>
          <leafValues>
            -5.8119851350784302e-01 5.7035926729440689e-02</leafValues></_>
        <_>
          <internalNodes>
            0 -1 20 8.3165187388658524e-03</internalNodes>
          <leafValues>
            -1.1762366443872452e-01 3.4727028012275696e-01</leafValues></_>
        <_>
          <internalNodes>
            0 -1 620 -2.7105403132736683e-03</internalNodes>
          <leafValues>
            -6.2147450447082520e-01 6.7821733653545380e-02</leafValues></_>
        <_>
          <internalNodes>
            0 -1 389 -4.9668259453028440e-04</internalNodes>
          <leafValues>
            -4.0181857347488403e-01 8.8708028197288513e-02</leafValues></_></weakClassifiers></_>
    <!-- stage 7 -->
    <_>
      <maxWeakCount>52</maxWeakCount>
      <stageThreshold>-1.1562130451202393e+00</stageThreshold>
      <weakClassifiers>
        <_>
          <internalNodes>
            0 -1 330 2.7497820556163788e-03</internalNodes>
          <leafValues>
            -4.0878379344940186e-01 2.0481927692890167e-01</leafValues></_>
        <_>
          <internalNodes>
            0 -1 247 -3.5676064726430923e-05</internalNodes>
          <leafValues>
            1.5592893958091736e-01 -2.7732107043266296e-01</leafValues></_>
        <_>
          <internalNodes>
            0 -1 101 -3.3193640410900116e-02</internalNodes>
          <leafValues>
            4.2765489220619202e-01 -9.0787000954151154e-02</leafValues></_>
        <_>
          <internalNodes>
            0 -1 206 2.1497353911399841e-02</internalNodes>
          <leafValues>
            -7.2264648973941803e-02 5.6173360347747803e-01</leafValues></_>
        <_>
          <internalNodes>
            0 -1 303 -5.0053996965289116e-03</internalNodes>
          <leafValues>
            4.4227162003517151e-01 -6.3185743987560272e-02</leafValues></_>
        <_>
          <internalNodes>
            0 -1 654 4.2615896090865135e-03</internalNodes>
          <leafValues>
            7.2605438530445099e-02 -5.0822860002517700e-01</leafValues></_>
        <_>
          <internalNodes>
            0 -1 108 4.2567523196339607e-03</internalNodes>
          <leafValues>
            -6.0015372931957245e-02 4.3527016043663025e-01</leafValues></_>
        <_>
          <internalNodes>
            0 -1 171 1.9379148725420237e-03</internalNodes>
          <leafValues>
            -9.2902027070522308e-02 3.9929017424583435e-01</leafValues></_>
        <_>
          <internalNodes>
            0 -1 717 -1.5596218872815371e-03</internalNodes>
          <leafValues>
            -6.5562409162521362e-01 5.4507795721292496e-02</leafValues></_>
        <_>
          <internalNodes>
            0 -1 558 1.5516555868089199e-02</internalNodes>
          <leafValues>
            -7.3502995073795319e-02 5.0401204824447632e-01</leafValues></_>
        <_>
          <internalNodes>
            0 -1 365 -6.6519812680780888e-03</internalNodes>
          <leafValues>
            -6.1969828605651855e-01 7.0062682032585144e-02</leafValues></_>
        <_>
          <internalNodes>
            0 -1 519 -9.1020409017801285e-03</internalNodes>
          <leafValues>
            4.4084486365318298e-01 -9.9220857024192810e-02</leafValues></_>
        <_>
          <internalNodes>
            0 -1 423 4.5947236940264702e-03</internalNodes>
          <leafValues>
            -8.5465401411056519e-02 5.4460573196411133e-01</leafValues></_>
        <_>
          <internalNodes>
            0 -1 584 4.3678447604179382e-02</internalNodes>
          <leafValues>
            4.1874770075082779e-02 -8.7289977073669434e-01</leafValues></_>
        <_>
          <internalNodes>
            0 -1 674 1.9079748541116714e-02</internalNodes>
          <leafValues>
            -1.3156759738922119e-01 3.1134217977523804e-01</leafValues></_>
        <_>
          <internalNodes>
            0 -1 675 -1.4054562896490097e-02</internalNodes>
          <leafValues>
            2.4265125393867493e-01 -1.8850818276405334e-01</leafValues></_>
        <_>
          <internalNodes>
            0 -1 693 -1.2237408664077520e-03</internalNodes>
          <leafValues>
            -4.6730819344520569e-01 9.5026746392250061e-02</leafValues></_>
        <_>
          <internalNodes>
            0 -1 648 -1.1523669818416238e-03</internalNodes>
          <leafValues>
            2.5767824053764343e-01 -1.4903064072132111e-01</leafValues></_>
        <_>
          <internalNodes>
            0 -1 578 -3.7370673380792141e-03</internalNodes>
          <leafValues>
            -5.8562868833541870e-01 6.6065818071365356e-02</leafValues></_>
        <_>
          <internalNodes>
            0 -1 145 -3.5757573787122965e-03</internalNodes>
          <leafValues>
            4.0729162096977234e-01 -9.3425810337066650e-02</leafValues></_>
        <_>
          <internalNodes>
            0 -1 723 8.1414170563220978e-04</internalNodes>
          <leafValues>
            8.2434922456741333e-02 -4.4822260737419128e-01</leafValues></_>
        <_>
          <internalNodes>
            0 -1 615 2.9079063097015023e-04</internalNodes>
          <leafValues>
            -1.4729963243007660e-01 2.6561242341995239e-01</leafValues></_>
        <_>
          <internalNodes>
            0 -1 30 1.3623182894662023e-03</internalNodes>
          <leafValues>
            9.6531420946121216e-02 -4.0645593404769897e-01</leafValues></_>
        <_>
          <internalNodes>
            0 -1 53 -1.2042537331581116e-02</internalNodes>
          <leafValues>
            -5.0967746973037720e-01 6.4321443438529968e-02</leafValues></_>
        <_>
          <internalNodes>
            0 -1 518 -2.0283844787627459e-03</internalNodes>
          <leafValues>
            3.4933903813362122e-01 -1.0666222870349884e-01</leafValues></_>
        <_>
          <internalNodes>
            0 -1 47 -1.3537348713725805e-03</internalNodes>
          <leafValues>
            -5.4022949934005737e-01 7.2297997772693634e-02</leafValues></_>
        <_>
          <internalNodes>
            0 -1 184 6.7863636650145054e-04</internalNodes>
          <leafValues>
            -1.5909196436405182e-01 2.2135874629020691e-01</leafValues></_>
        <_>
          <internalNodes>
            0 -1 81 -9.1253016144037247e-03</internalNodes>
          <leafValues>
            2.2701184451580048e-01 -1.5764741599559784e-01</leafValues></_>
        <_>
          <internalNodes>
            0 -1 197 -1.2184705585241318e-02</internalNodes>
          <leafValues>
            2.3928651213645935e-01 -1.6012415289878845e-01</leafValues></_>
        <_>
          <internalNodes>
            0 -1 450 -1.5198593609966338e-04</internalNodes>
          <leafValues>
            2.2556915879249573e-01 -1.7644111812114716e-01</leafValues></_>
        <_>
          <internalNodes>
            0 -1 168 -6.9696543505415320e-04</internalNodes>
          <leafValues>
            -3.9765432476997375e-01 9.7964018583297729e-02</leafValues></_>
        <_>
          <internalNodes>
            0 -1 215 -1.1730807274580002e-01</internalNodes>
          <leafValues>
            -8.5093349218368530e-01 3.5812366753816605e-02</leafValues></_>
        <_>
          <internalNodes>
            0 -1 611 -1.3564055785536766e-02</internalNodes>
          <leafValues>
            -8.1707483530044556e-01 3.4317445009946823e-02</leafValues></_>
        <_>
          <internalNodes>
            0 -1 555 -4.3044611811637878e-02</internalNodes>
          <leafValues>
            -4.1854846477508545e-01 9.0776763856410980e-02</leafValues></_>
        <_>
          <internalNodes>
            0 -1 531 3.9983723312616348e-02</internalNodes>
          <leafValues>
            -7.8702472150325775e-02 5.7199823856353760e-01</leafValues></_>
        <_>
          <internalNodes>
            0 -1 354 1.7849050462245941e-02</internalNodes>
          <leafValues>
            -8.6088269948959351e-02 3.9251756668090820e-01</leafValues></_>
        <_>
          <internalNodes>
            0 -1 367 6.4627155661582947e-03</internalNodes>
          <leafValues>
            5.7177599519491196e-02 -6.9282567501068115e-01</leafValues></_>
        <_>
          <internalNodes>
            0 -1 180 3.4504272043704987e-02</internalNodes>
          <leafValues>
            -1.3135068118572235e-01 3.3483976125717163e-01</leafValues></_>
        <_>
          <internalNodes>
            0 -1 214 -2.7356542646884918e-02</internalNodes>
          <leafValues>
            3.9319217205047607e-01 -1.0298821330070496e-01</leafValues></_>
        <_>
          <internalNodes>
            0 -1 230 -2.8492730110883713e-02</internalNodes>
          <leafValues>
            -5.8913725614547729e-01 7.0054434239864349e-02</leafValues></_>
        <_>
          <internalNodes>
            0 -1 417 1.6202278435230255e-02</internalNodes>
          <leafValues>
            -1.6163426637649536e-01 2.5921010971069336e-01</leafValues></_>
        <_>
          <internalNodes>
            0 -1 695 3.4499655012041330e-03</internalNodes>
          <leafValues>
            -9.5026813447475433e-02 3.9292845129966736e-01</leafValues></_>
        <_>
          <internalNodes>
            0 -1 582 -2.4142976850271225e-02</internalNodes>
          <leafValues>
            5.5585491657257080e-01 -6.9087915122509003e-02</leafValues></_>
        <_>
          <internalNodes>
            0 -1 665 4.5069940388202667e-03</internalNodes>
          <leafValues>
            -1.2077102810144424e-01 3.0851534008979797e-01</leafValues></_>
        <_>
          <internalNodes>
            0 -1 141 1.7268083989620209e-01</internalNodes>
          <leafValues>
            -9.0986207127571106e-02 3.9875030517578125e-01</leafValues></_>
        <_>
          <internalNodes>
            0 -1 678 8.6903609335422516e-03</internalNodes>
          <leafValues>
            1.0901384055614471e-01 -3.6566540598869324e-01</leafValues></_>
        <_>
          <internalNodes>
            0 -1 297 2.7399426326155663e-03</internalNodes>
          <leafValues>
            -8.4299437701702118e-02 4.9840515851974487e-01</leafValues></_>
        <_>
          <internalNodes>
            0 -1 348 -3.4910286776721478e-03</internalNodes>
          <leafValues>
            -3.0794242024421692e-01 1.2547513842582703e-01</leafValues></_>
        <_>
          <internalNodes>
            0 -1 534 -1.8293365836143494e-02</internalNodes>
          <leafValues>
            2.7962774038314819e-01 -1.3493962585926056e-01</leafValues></_>
        <_>
          <internalNodes>
            0 -1 86 2.8890911489725113e-03</internalNodes>
          <leafValues>
            5.8164287358522415e-02 -6.9380164146423340e-01</leafValues></_>
        <_>
          <internalNodes>
            0 -1 659 -5.8751944452524185e-03</internalNodes>
          <leafValues>
            2.6401945948600769e-01 -1.5343642234802246e-01</leafValues></_>
        <_>
          <internalNodes>
            0 -1 703 2.0210456568747759e-04</internalNodes>
          <leafValues>
            -1.8415930867195129e-01 2.1974705159664154e-01</leafValues></_></weakClassifiers></_>
    <!-- stage 8 -->
    <_>
      <maxWeakCount>48</maxWeakCount>
      <stageThreshold>-9.9710524082183838e-01</stageThreshold>
      <weakClassifiers>
        <_>
          <internalNodes>
            0 -1 527 1.4330277219414711e-02</internalNodes>
          <leafValues>
            -4.3017807602882385e-01 3.1802121549844742e-02</leafValues></_>
        <_>
          <internalNodes>
            0 -1 460 1.8188212066888809e-02</internalNodes>
          <leafValues>
            -1.7365711927413940e-01 2.2531551122665405e-01</leafValues></_>
        <_>
          <internalNodes>
            0 -1 603 -5.8357659727334976e-02</internalNodes>
          <leafValues>
            4.2838129401206970e-01 -8.4542348980903625e-02</leafValues></_>
        <_>
          <internalNodes>
            0 -1 625 -1.2138457968831062e-02</internalNodes>
          <leafValues>
            4.9696627259254456e-01 -6.8858027458190918e-02</leafValues></_>
        <_>
          <internalNodes>
            0 -1 374 1.7131239175796509e-02</internalNodes>
          <leafValues>
            -8.4127798676490784e-02 4.1193398833274841e-01</leafValues></_>
        <_>
          <internalNodes>
            0 -1 427 1.8073135614395142e-01</internalNodes>
          <leafValues>
            -5.5574130266904831e-02 5.3349685668945312e-01</leafValues></_>
        <_>
          <internalNodes>
            0 -1 2 -1.8555957358330488e-03</internalNodes>
          <leafValues>
            -3.6248070001602173e-01 9.1378450393676758e-02</leafValues></_>
        <_>
          <internalNodes>
            0 -1 21 -1.8710544332861900e-02</internalNodes>
          <leafValues>
            5.9847640991210938e-01 -3.8035131990909576e-02</leafValues></_>
        <_>
          <internalNodes>
            0 -1 289 4.9912853864952922e-04</internalNodes>
          <leafValues>
            7.6646558940410614e-02 -4.2407935857772827e-01</leafValues></_>
        <_>
          <internalNodes>
            0 -1 60 1.5825014561414719e-02</internalNodes>
          <leafValues>
            -1.1873783171176910e-01 3.1637173891067505e-01</leafValues></_>
        <_>
          <internalNodes>
            0 -1 65 -1.9719406962394714e-02</internalNodes>
          <leafValues>
            2.5806257128715515e-01 -1.4522165060043335e-01</leafValues></_>
        <_>
          <internalNodes>
            0 -1 192 -6.1801344156265259e-02</internalNodes>
          <leafValues>
            2.8941810131072998e-01 -1.2574660778045654e-01</leafValues></_>
        <_>
          <internalNodes>
            0 -1 281 8.3854352124035358e-04</internalNodes>
          <leafValues>
            -1.5047757327556610e-01 2.4818369746208191e-01</leafValues></_>
        <_>
          <internalNodes>
            0 -1 185 -1.1461924761533737e-02</internalNodes>
          <leafValues>
            2.7031868696212769e-01 -1.2443427741527557e-01</leafValues></_>
        <_>
          <internalNodes>
            0 -1 105 -6.5367467701435089e-02</internalNodes>
          <leafValues>
            -4.3447664380073547e-01 8.4162853658199310e-02</leafValues></_>
        <_>
          <internalNodes>
            0 -1 222 6.5078996121883392e-02</internalNodes>
          <leafValues>
            1.0142428427934647e-01 -3.6087363958358765e-01</leafValues></_>
        <_>
          <internalNodes>
            0 -1 252 3.0811044853180647e-03</internalNodes>
          <leafValues>
            7.2421498596668243e-02 -4.8559463024139404e-01</leafValues></_>
        <_>
          <internalNodes>
            0 -1 467 -2.7509788051247597e-03</internalNodes>
          <leafValues>
            -6.7211794853210449e-01 4.3000202625989914e-02</leafValues></_>
        <_>
          <internalNodes>
            0 -1 371 -8.1927385181188583e-03</internalNodes>
          <leafValues>
            4.7981196641921997e-01 -9.1863654553890228e-02</leafValues></_>
        <_>
          <internalNodes>
            0 -1 407 3.3212578855454922e-03</internalNodes>
          <leafValues>
            -1.3801147043704987e-01 3.2985350489616394e-01</leafValues></_>
        <_>
          <internalNodes>
            0 -1 236 -2.7522895834408700e-04</internalNodes>
          <leafValues>
            -3.2679030299186707e-01 1.0733846575021744e-01</leafValues></_>
        <_>
          <internalNodes>
            0 -1 364 -1.7481463728472590e-03</internalNodes>
          <leafValues>
            2.1379323303699493e-01 -1.5159751474857330e-01</leafValues></_>
        <_>
          <internalNodes>
            0 -1 504 -2.6799798943102360e-03</internalNodes>
          <leafValues>
            -4.7446435689926147e-01 7.1534581482410431e-02</leafValues></_>
        <_>
          <internalNodes>
            0 -1 610 1.7685070633888245e-02</internalNodes>
          <leafValues>
            -1.4091981947422028e-01 2.7534356713294983e-01</leafValues></_>
        <_>
          <internalNodes>
            0 -1 617 -1.2573165819048882e-02</internalNodes>
          <leafValues>
            3.9965724945068359e-01 -9.0768553316593170e-02</leafValues></_>
        <_>
          <internalNodes>
            0 -1 235 -2.8677805676124990e-04</internalNodes>
          <leafValues>
            -2.7603387832641602e-01 1.3017955422401428e-01</leafValues></_>
        <_>
          <internalNodes>
            0 -1 619 -2.1195599809288979e-02</internalNodes>
          <leafValues>
            -4.4732388854026794e-01 7.3647618293762207e-02</leafValues></_>
        <_>
          <internalNodes>
            0 -1 379 -4.6911053359508514e-03</internalNodes>
          <leafValues>
            4.3946823477745056e-01 -9.2405207455158234e-02</leafValues></_>
        <_>
          <internalNodes>
            0 -1 263 5.3350008092820644e-03</internalNodes>
          <leafValues>
            -9.1508083045482635e-02 3.5487091541290283e-01</leafValues></_>
        <_>
          <internalNodes>
            0 -1 490 -3.2138414680957794e-02</internalNodes>
          <leafValues>
            -6.4224791526794434e-01 6.2877736985683441e-02</leafValues></_>
        <_>
          <internalNodes>
            0 -1 343 -1.9670045003294945e-03</internalNodes>
          <leafValues>
            -3.9938324689865112e-01 7.1015201508998871e-02</leafValues></_>
        <_>
          <internalNodes>
            0 -1 501 -5.1279626786708832e-03</internalNodes>
          <leafValues>
            5.1085865497589111e-01 -7.1015045046806335e-02</leafValues></_>
        <_>
          <internalNodes>
            0 -1 11 6.4964657649397850e-03</internalNodes>
          <leafValues>
            1.0148543119430542e-01 -3.4096711874008179e-01</leafValues></_>
        <_>
          <internalNodes>
            0 -1 9 -3.0182050541043282e-02</internalNodes>
          <leafValues>
            2.2883370518684387e-01 -1.4746263623237610e-01</leafValues></_>
        <_>
          <internalNodes>
            0 -1 521 2.2627953439950943e-03</internalNodes>
          <leafValues>
            -9.0324960649013519e-02 3.5127067565917969e-01</leafValues></_>
        <_>
          <internalNodes>
            0 -1 422 -2.5584283284842968e-03</internalNodes>
          <leafValues>
            3.3066627383232117e-01 -1.1463086307048798e-01</leafValues></_>
        <_>
          <internalNodes>
            0 -1 628 -5.1347604021430016e-03</internalNodes>
          <leafValues>
            -5.2319884300231934e-01 6.6486023366451263e-02</leafValues></_>
        <_>
          <internalNodes>
            0 -1 71 -1.1175151448696852e-03</internalNodes>
          <leafValues>
            -4.6000483632087708e-01 6.7235104739665985e-02</leafValues></_>
        <_>
          <internalNodes>
            0 -1 1 -3.5608315374702215e-04</internalNodes>
          <leafValues>
            -3.3558529615402222e-01 9.2118613421916962e-02</leafValues></_>
        <_>
          <internalNodes>
            0 -1 370 -2.1163452765904367e-04</internalNodes>
          <leafValues>
            2.3575396835803986e-01 -1.4585795998573303e-01</leafValues></_>
        <_>
          <internalNodes>
            0 -1 445 -3.0513131059706211e-03</internalNodes>
          <leafValues>
            3.6981004476547241e-01 -9.6921734511852264e-02</leafValues></_>
        <_>
          <internalNodes>
            0 -1 19 -2.6130734477192163e-03</internalNodes>
          <leafValues>
            -7.2372353076934814e-01 4.9719650298357010e-02</leafValues></_>
        <_>
          <internalNodes>
            0 -1 651 8.6506572552025318e-04</internalNodes>
          <leafValues>
            -1.3755972683429718e-01 2.3191584646701813e-01</leafValues></_>
        <_>
          <internalNodes>
            0 -1 694 -2.6370305567979813e-03</internalNodes>
          <leafValues>
            -5.5049777030944824e-01 6.3227951526641846e-02</leafValues></_>
        <_>
          <internalNodes>
            0 -1 672 8.8747274130582809e-03</internalNodes>
          <leafValues>
            -9.9117964506149292e-02 3.4639281034469604e-01</leafValues></_>
        <_>
          <internalNodes>
            0 -1 441 -8.4003992378711700e-03</internalNodes>
          <leafValues>
            -2.8277462720870972e-01 1.1856692284345627e-01</leafValues></_>
        <_>
          <internalNodes>
            0 -1 505 5.7345800101757050e-02</internalNodes>
          <leafValues>
            6.0834337025880814e-02 -6.1626166105270386e-01</leafValues></_>
        <_>
          <internalNodes>
            0 -1 662 -3.5260785371065140e-03</internalNodes>
          <leafValues>
            1.7475943267345428e-01 -1.9223050773143768e-01</leafValues></_></weakClassifiers></_>
    <!-- stage 9 -->
    <_>
      <maxWeakCount>54</maxWeakCount>
      <stageThreshold>-8.7672042846679688e-01</stageThreshold>
      <weakClassifiers>
        <_>
          <internalNodes>
            0 -1 526 9.0516209602355957e-02</internalNodes>
          <leafValues>
            -4.0676495432853699e-01 9.6446700394153595e-02</leafValues></_>
        <_>
          <internalNodes>
            0 -1 679 1.7028274014592171e-02</internalNodes>
          <leafValues>
            -8.9763507246971130e-02 4.2679727077484131e-01</leafValues></_>
        <_>
          <internalNodes>
            0 -1 228 -6.0853250324726105e-03</internalNodes>
          <leafValues>
            -4.6666973829269409e-01 6.3219510018825531e-02</leafValues></_>
        <_>
          <internalNodes>
            0 -1 115 2.1636433899402618e-02</internalNodes>
          <leafValues>
            -7.3608271777629852e-02 3.9444330334663391e-01</leafValues></_>
        <_>
          <internalNodes>
            0 -1 700 -3.5254437476396561e-02</internalNodes>
          <leafValues>
            -6.0997891426086426e-01 5.0625491887331009e-02</leafValues></_>
        <_>
          <internalNodes>
            0 -1 23 -1.8482290208339691e-02</internalNodes>
          <leafValues>
            2.8623154759407043e-01 -1.2204401195049286e-01</leafValues></_>
        <_>
          <internalNodes>
            0 -1 438 -6.6672056913375854e-02</internalNodes>
          <leafValues>
            4.7439503669738770e-01 -7.8660771250724792e-02</leafValues></_>
        <_>
          <internalNodes>
            0 -1 404 -1.4821554941590875e-05</internalNodes>
          <leafValues>
            1.9675192236900330e-01 -1.7278274893760681e-01</leafValues></_>
        <_>
          <internalNodes>
            0 -1 399 1.1396662890911102e-01</internalNodes>
          <leafValues>
            4.9168780446052551e-02 -6.5689396858215332e-01</leafValues></_>
        <_>
          <internalNodes>
            0 -1 344 3.0649476684629917e-03</internalNodes>
          <leafValues>
            4.8311885446310043e-02 -5.4545164108276367e-01</leafValues></_>
        <_>
          <internalNodes>
            0 -1 597 -1.6552822664380074e-02</internalNodes>
          <leafValues>
            -5.6623029708862305e-01 5.4910823702812195e-02</leafValues></_>
        <_>
          <internalNodes>
            0 -1 258 3.1124120578169823e-03</internalNodes>
          <leafValues>
            -8.5113771259784698e-02 4.3699198961257935e-01</leafValues></_>
        <_>
          <internalNodes>
            0 -1 677 -2.9349509626626968e-02</internalNodes>
          <leafValues>
            3.2666650414466858e-01 -9.4091407954692841e-02</leafValues></_>
        <_>
          <internalNodes>
            0 -1 70 1.2269641738384962e-03</internalNodes>
          <leafValues>
            5.4674796760082245e-02 -6.0063600540161133e-01</leafValues></_>
        <_>
          <internalNodes>
            0 -1 209 3.3675204031169415e-03</internalNodes>
          <leafValues>
            -1.0477899014949799e-01 3.2742947340011597e-01</leafValues></_>
        <_>
          <internalNodes>
            0 -1 177 -1.6321510076522827e-02</internalNodes>
          <leafValues>
            4.3202748894691467e-01 -1.0419443249702454e-01</leafValues></_>
        <_>
          <internalNodes>
            0 -1 346 -9.9923205561935902e-04</internalNodes>
          <leafValues>
            -3.7664586305618286e-01 8.0891527235507965e-02</leafValues></_>
        <_>
          <internalNodes>
            0 -1 511 3.5778291057795286e-03</internalNodes>
          <leafValues>
            -8.8980898261070251e-02 3.9267715811729431e-01</leafValues></_>
        <_>
          <internalNodes>
            0 -1 164 8.8523373007774353e-02</internalNodes>
          <leafValues>
            -4.9595959484577179e-02 7.3199135065078735e-01</leafValues></_>
        <_>
          <internalNodes>
            0 -1 325 -3.5217651166021824e-03</internalNodes>
          <leafValues>
            -4.5989260077476501e-01 8.1184431910514832e-02</leafValues></_>
        <_>
          <internalNodes>
            0 -1 280 1.0457504540681839e-03</internalNodes>
          <leafValues>
            -1.5493884682655334e-01 2.1358025074005127e-01</leafValues></_>
        <_>
          <internalNodes>
            0 -1 196 1.4143178705126047e-03</internalNodes>
          <leafValues>
            -1.1627443879842758e-01 2.6825994253158569e-01</leafValues></_>
        <_>
          <internalNodes>
            0 -1 363 -1.1101213749498129e-03</internalNodes>
          <leafValues>
            -4.5885252952575684e-01 7.4160873889923096e-02</leafValues></_>
        <_>
          <internalNodes>
            0 -1 465 -6.7514656111598015e-03</internalNodes>
          <leafValues>
            2.5871786475181580e-01 -1.2567628920078278e-01</leafValues></_>
        <_>
          <internalNodes>
            0 -1 425 -2.2053716704249382e-02</internalNodes>
          <leafValues>
            4.0967836976051331e-01 -7.8219540417194366e-02</leafValues></_>
        <_>
          <internalNodes>
            0 -1 419 1.4163797022774816e-03</internalNodes>
          <leafValues>
            -1.1998999863862991e-01 2.7676004171371460e-01</leafValues></_>
        <_>
          <internalNodes>
            0 -1 621 1.9473617430776358e-03</internalNodes>
          <leafValues>
            8.4645174443721771e-02 -3.7738138437271118e-01</leafValues></_>
        <_>
          <internalNodes>
            0 -1 174 -2.3759580217301846e-03</internalNodes>
          <leafValues>
            2.7340027689933777e-01 -1.2315372377634048e-01</leafValues></_>
        <_>
          <internalNodes>
            0 -1 244 -8.1106396391987801e-03</internalNodes>
          <leafValues>
            -7.1689403057098389e-01 4.5090407133102417e-02</leafValues></_>
        <_>
          <internalNodes>
            0 -1 489 3.0877944082021713e-03</internalNodes>
          <leafValues>
            5.3590796887874603e-02 -5.3260976076126099e-01</leafValues></_>
        <_>
          <internalNodes>
            0 -1 579 -3.1973401200957596e-04</internalNodes>
          <leafValues>
            2.4234041571617126e-01 -1.4274419844150543e-01</leafValues></_>
        <_>
          <internalNodes>
            0 -1 604 8.7632611393928528e-03</internalNodes>
          <leafValues>
            -7.8446149826049805e-02 4.7567120194435120e-01</leafValues></_>
        <_>
          <internalNodes>
            0 -1 656 -1.0474873706698418e-03</internalNodes>
          <leafValues>
            -2.8887179493904114e-01 1.1300868541002274e-01</leafValues></_>
        <_>
          <internalNodes>
            0 -1 183 4.8938556574285030e-03</internalNodes>
          <leafValues>
            -1.6184209287166595e-01 2.0576868951320648e-01</leafValues></_>
        <_>
          <internalNodes>
            0 -1 403 -6.5743159502744675e-03</internalNodes>
          <leafValues>
            -3.8355565071105957e-01 8.9387930929660797e-02</leafValues></_>
        <_>
          <internalNodes>
            0 -1 567 2.7028578333556652e-03</internalNodes>
          <leafValues>
            -6.7146629095077515e-02 5.1893293857574463e-01</leafValues></_>
        <_>
          <internalNodes>
            0 -1 559 -1.0183355771005154e-02</internalNodes>
          <leafValues>
            3.0272340774536133e-01 -1.0845156759023666e-01</leafValues></_>
        <_>
          <internalNodes>
            0 -1 14 1.0963485110551119e-03</internalNodes>
          <leafValues>
            1.2302465736865997e-01 -2.6844990253448486e-01</leafValues></_>
        <_>
          <internalNodes>
            0 -1 143 1.4093385543674231e-03</internalNodes>
          <leafValues>
            -1.3693851232528687e-01 2.3126344382762909e-01</leafValues></_>
        <_>
          <internalNodes>
            0 -1 667 1.6131743323057890e-03</internalNodes>
          <leafValues>
            7.9501971602439880e-02 -3.9692649245262146e-01</leafValues></_>
        <_>
          <internalNodes>
            0 -1 169 1.0626313742250204e-03</internalNodes>
          <leafValues>
            -8.2865603268146515e-02 3.9039102196693420e-01</leafValues></_>
        <_>
          <internalNodes>
            0 -1 169 -8.5680128540843725e-04</internalNodes>
          <leafValues>
            3.6927103996276855e-01 -9.5133952796459198e-02</leafValues></_>
        <_>
          <internalNodes>
            0 -1 135 -1.5624547377228737e-03</internalNodes>
          <leafValues>
            -5.7828509807586670e-01 6.8657949566841125e-02</leafValues></_>
        <_>
          <internalNodes>
            0 -1 130 -4.9503981135785580e-03</internalNodes>
          <leafValues>
            -8.2971429824829102e-01 3.5419408231973648e-02</leafValues></_>
        <_>
          <internalNodes>
            0 -1 167 -3.8687009364366531e-02</internalNodes>
          <leafValues>
            4.9893486499786377e-01 -8.2053996622562408e-02</leafValues></_>
        <_>
          <internalNodes>
            0 -1 231 -5.8272514492273331e-02</internalNodes>
          <leafValues>
            -4.2350527644157410e-01 9.0430602431297302e-02</leafValues></_>
        <_>
          <internalNodes>
            0 -1 400 -1.0493600741028786e-02</internalNodes>
          <leafValues>
            2.3255933821201324e-01 -1.6180336475372314e-01</leafValues></_>
        <_>
          <internalNodes>
            0 -1 454 -7.0231122663244605e-04</internalNodes>
          <leafValues>
            -3.1963247060775757e-01 1.1091084033250809e-01</leafValues></_>
        <_>
          <internalNodes>
            0 -1 635 2.4002841673791409e-03</internalNodes>
          <leafValues>
            -1.3635244965553284e-01 2.7845692634582520e-01</leafValues></_>
        <_>
          <internalNodes>
            0 -1 636 -4.3472005054354668e-03</internalNodes>
          <leafValues>
            2.0499797165393829e-01 -1.6036145389080048e-01</leafValues></_>
        <_>
          <internalNodes>
            0 -1 607 -3.2545877620577812e-03</internalNodes>
          <leafValues>
            2.6033523678779602e-01 -1.2730789184570312e-01</leafValues></_>
        <_>
          <internalNodes>
            0 -1 240 1.9277348183095455e-03</internalNodes>
          <leafValues>
            -1.4157091081142426e-01 2.3669706284999847e-01</leafValues></_>
        <_>
          <internalNodes>
            0 -1 395 -4.2531929910182953e-02</internalNodes>
          <leafValues>
            3.2934603095054626e-01 -1.0170459002256393e-01</leafValues></_>
        <_>
          <internalNodes>
            0 -1 347 -6.7880231654271483e-04</internalNodes>
          <leafValues>
            -2.4542002379894257e-01 1.5302729606628418e-01</leafValues></_></weakClassifiers></_>
    <!-- stage 10 -->
    <_>
      <maxWeakCount>60</maxWeakCount>
      <stageThreshold>-1.0043390989303589e+00</stageThreshold>
      <weakClassifiers>
        <_>
          <internalNodes>
            0 -1 275 6.8233563797548413e-04</internalNodes>
          <leafValues>
            -4.1560798883438110e-01 3.2258063554763794e-02</leafValues></_>
        <_>
          <internalNodes>
            0 -1 690 -6.9352146238088608e-04</internalNodes>
          <leafValues>
            2.7256333827972412e-01 -1.3334523141384125e-01</leafValues></_>
        <_>
          <internalNodes>
            0 -1 373 -2.2290106862783432e-02</internalNodes>
          <leafValues>
            3.9841195940971375e-01 -7.7017068862915039e-02</leafValues></_>
        <_>
          <internalNodes>
            0 -1 413 -7.5379135087132454e-03</internalNodes>
          <leafValues>
            5.2001589536666870e-01 -6.0462035238742828e-02</leafValues></_>
        <_>
          <internalNodes>
            0 -1 593 -4.0548175573348999e-02</internalNodes>
          <leafValues>
            -8.6266136169433594e-01 4.1409537196159363e-02</leafValues></_>
        <_>
          <internalNodes>
            0 -1 660 5.4500633850693703e-03</internalNodes>
          <leafValues>
            4.4252656400203705e-02 -7.5148195028305054e-01</leafValues></_>
        <_>
          <internalNodes>
            0 -1 609 3.8721398450434208e-03</internalNodes>
          <leafValues>
            -1.4265395700931549e-01 2.4328500032424927e-01</leafValues></_>
        <_>
          <internalNodes>
            0 -1 468 -1.4093505451455712e-03</internalNodes>
          <leafValues>
            -6.9285506010055542e-01 4.6326555311679840e-02</leafValues></_>
        <_>
          <internalNodes>
            0 -1 275 -1.2818698305636644e-03</internalNodes>
          <leafValues>
            5.0223076343536377e-01 -6.0703888535499573e-02</leafValues></_>
        <_>
          <internalNodes>
            0 -1 486 -8.3624785766005516e-03</internalNodes>
          <leafValues>
            -6.6857290267944336e-01 5.0311427563428879e-02</leafValues></_>
        <_>
          <internalNodes>
            0 -1 152 2.1027129143476486e-02</internalNodes>
          <leafValues>
            6.5530970692634583e-02 -4.9551919102668762e-01</leafValues></_>
        <_>
          <internalNodes>
            0 -1 594 5.4444340057671070e-03</internalNodes>
          <leafValues>
            3.9287235587835312e-02 -6.3268619775772095e-01</leafValues></_>
        <_>
          <internalNodes>
            0 -1 44 2.6192680001258850e-02</internalNodes>
          <leafValues>
            -8.9784778654575348e-02 3.5430437326431274e-01</leafValues></_>
        <_>
          <internalNodes>
            0 -1 33 -9.4468649476766586e-03</internalNodes>
          <leafValues>
            2.5467833876609802e-01 -1.4993369579315186e-01</leafValues></_>
        <_>
          <internalNodes>
            0 -1 670 2.7061566710472107e-02</internalNodes>
          <leafValues>
            -6.2403727322816849e-02 4.5334947109222412e-01</leafValues></_>
        <_>
          <internalNodes>
            0 -1 300 4.0803509764373302e-03</internalNodes>
          <leafValues>
            -1.3524709641933441e-01 2.4445384740829468e-01</leafValues></_>
        <_>
          <internalNodes>
            0 -1 714 -1.9327031914144754e-03</internalNodes>
          <leafValues>
            -3.2618877291679382e-01 9.6654042601585388e-02</leafValues></_>
        <_>
          <internalNodes>
            0 -1 385 -4.5955642126500607e-03</internalNodes>
          <leafValues>
            4.0488547086715698e-01 -7.8321993350982666e-02</leafValues></_>
        <_>
          <internalNodes>
            0 -1 79 2.5526033714413643e-03</internalNodes>
          <leafValues>
            4.9693666398525238e-02 -6.8816661834716797e-01</leafValues></_>
        <_>
          <internalNodes>
            0 -1 544 1.3595834607258439e-03</internalNodes>
          <leafValues>
            4.4236734509468079e-02 -6.0218900442123413e-01</leafValues></_>
        <_>
          <internalNodes>
            0 -1 513 -1.4997664839029312e-03</internalNodes>
          <leafValues>
            4.5430374145507812e-01 -7.8655883669853210e-02</leafValues></_>
        <_>
          <internalNodes>
            0 -1 356 4.6165019273757935e-02</internalNodes>
          <leafValues>
            4.1634883731603622e-02 -8.2829070091247559e-01</leafValues></_>
        <_>
          <internalNodes>
            0 -1 719 -4.7536331112496555e-04</internalNodes>
          <leafValues>
            -3.5349285602569580e-01 8.4415219724178314e-02</leafValues></_>
        <_>
          <internalNodes>
            0 -1 499 -2.8079027310013771e-02</internalNodes>
          <leafValues>
            2.4323011934757233e-01 -1.3274362683296204e-01</leafValues></_>
        <_>
          <internalNodes>
            0 -1 550 1.3004556531086564e-03</internalNodes>
          <leafValues>
            7.5750917196273804e-02 -4.7129493951797485e-01</leafValues></_>
        <_>
          <internalNodes>
            0 -1 372 -1.8206918612122536e-03</internalNodes>
          <leafValues>
            6.5333712100982666e-01 -5.3229860961437225e-02</leafValues></_>
        <_>
          <internalNodes>
            0 -1 463 1.8212007125839591e-04</internalNodes>
          <leafValues>
            -1.4618252217769623e-01 2.0438717305660248e-01</leafValues></_>
        <_>
          <internalNodes>
            0 -1 157 -4.7451749444007874e-02</internalNodes>
          <leafValues>
            -6.8166774511337280e-01 4.5510899275541306e-02</leafValues></_>
        <_>
          <internalNodes>
            0 -1 575 -1.2998183956369758e-03</internalNodes>
          <leafValues>
            2.3717492818832397e-01 -1.4342816174030304e-01</leafValues></_>
        <_>
          <internalNodes>
            0 -1 301 -2.6777729392051697e-02</internalNodes>
          <leafValues>
            -4.3233457207679749e-01 7.6380848884582520e-02</leafValues></_>
        <_>
          <internalNodes>
            0 -1 491 -2.7644922956824303e-02</internalNodes>
          <leafValues>
            2.9212719202041626e-01 -1.2792922556400299e-01</leafValues></_>
        <_>
          <internalNodes>
            0 -1 149 -1.3548392057418823e-01</internalNodes>
          <leafValues>
            -5.4683089256286621e-01 6.7357048392295837e-02</leafValues></_>
        <_>
          <internalNodes>
            0 -1 596 -1.1218687519431114e-02</internalNodes>
          <leafValues>
            2.3796911537647247e-01 -1.4755645394325256e-01</leafValues></_>
        <_>
          <internalNodes>
            0 -1 536 -1.7862730892375112e-03</internalNodes>
          <leafValues>
            3.6828705668449402e-01 -9.5119185745716095e-02</leafValues></_>
        <_>
          <internalNodes>
            0 -1 691 1.0188857559114695e-03</internalNodes>
          <leafValues>
            1.3952520489692688e-01 -2.4163030087947845e-01</leafValues></_>
        <_>
          <internalNodes>
            0 -1 224 -1.1174815893173218e-01</internalNodes>
          <leafValues>
            -5.4622191190719604e-01 5.1310449838638306e-02</leafValues></_>
        <_>
          <internalNodes>
            0 -1 52 -1.0633461177349091e-02</internalNodes>
          <leafValues>
            -5.3944587707519531e-01 5.7492692023515701e-02</leafValues></_>
        <_>
          <internalNodes>
            0 -1 506 1.2866155011579394e-03</internalNodes>
          <leafValues>
            -1.0126858204603195e-01 3.2792603969573975e-01</leafValues></_>
        <_>
          <internalNodes>
            0 -1 163 -1.0739772114902735e-03</internalNodes>
          <leafValues>
            3.1995713710784912e-01 -1.0212238878011703e-01</leafValues></_>
        <_>
          <internalNodes>
            0 -1 622 -1.2988579692319036e-04</internalNodes>
          <leafValues>
            -2.1558396518230438e-01 1.4100621640682220e-01</leafValues></_>
        <_>
          <internalNodes>
            0 -1 602 -4.0330803021788597e-03</internalNodes>
          <leafValues>
            -4.8104289174079895e-01 6.7768946290016174e-02</leafValues></_>
        <_>
          <internalNodes>
            0 -1 98 1.2998360907658935e-03</internalNodes>
          <leafValues>
            -1.1244966089725494e-01 3.0613166093826294e-01</leafValues></_>
        <_>
          <internalNodes>
            0 -1 601 3.4215964376926422e-02</internalNodes>
          <leafValues>
            -9.5776759088039398e-02 3.4957864880561829e-01</leafValues></_>
        <_>
          <internalNodes>
            0 -1 719 4.8822260578162968e-04</internalNodes>
          <leafValues>
            8.8253825902938843e-02 -3.7602314352989197e-01</leafValues></_>
        <_>
          <internalNodes>
            0 -1 569 -8.1017259508371353e-03</internalNodes>
          <leafValues>
            3.9771249890327454e-01 -9.2455245554447174e-02</leafValues></_>
        <_>
          <internalNodes>
            0 -1 256 -5.3115421906113625e-03</internalNodes>
          <leafValues>
            -5.2847707271575928e-01 7.1110524237155914e-02</leafValues></_>
        <_>
          <internalNodes>
            0 -1 114 2.5635089259594679e-03</internalNodes>
          <leafValues>
            -1.0995513945817947e-01 3.2330504059791565e-01</leafValues></_>
        <_>
          <internalNodes>
            0 -1 576 2.7664266526699066e-03</internalNodes>
          <leafValues>
            -7.2835609316825867e-02 4.6604448556900024e-01</leafValues></_>
        <_>
          <internalNodes>
            0 -1 668 8.8327200501225889e-05</internalNodes>
          <leafValues>
            1.6186597943305969e-01 -2.0077839493751526e-01</leafValues></_>
        <_>
          <internalNodes>
            0 -1 498 6.5086176618933678e-03</internalNodes>
          <leafValues>
            -5.3994070738554001e-02 6.8661999702453613e-01</leafValues></_>
        <_>
          <internalNodes>
            0 -1 716 -3.6662627826444805e-04</internalNodes>
          <leafValues>
            -2.9785746335983276e-01 1.1074692755937576e-01</leafValues></_>
        <_>
          <internalNodes>
            0 -1 362 -7.4001429602503777e-03</internalNodes>
          <leafValues>
            4.9082177877426147e-01 -6.9748073816299438e-02</leafValues></_>
        <_>
          <internalNodes>
            0 -1 216 -2.5651678442955017e-03</internalNodes>
          <leafValues>
            -8.0591338872909546e-01 4.3875068426132202e-02</leafValues></_>
        <_>
          <internalNodes>
            0 -1 455 6.7771738395094872e-04</internalNodes>
          <leafValues>
            6.9021984934806824e-02 -4.6231701970100403e-01</leafValues></_>
        <_>
          <internalNodes>
            0 -1 381 1.5892428345978260e-03</internalNodes>
          <leafValues>
            -1.1903695017099380e-01 3.2033187150955200e-01</leafValues></_>
        <_>
          <internalNodes>
            0 -1 592 5.1168375648558140e-04</internalNodes>
          <leafValues>
            -1.0473236441612244e-01 3.0360668897628784e-01</leafValues></_>
        <_>
          <internalNodes>
            0 -1 644 2.3106173612177372e-03</internalNodes>
          <leafValues>
            4.2243029922246933e-02 -8.2878476381301880e-01</leafValues></_>
        <_>
          <internalNodes>
            0 -1 439 -1.2739291414618492e-02</internalNodes>
          <leafValues>
            3.3063691854476929e-01 -1.0279690474271774e-01</leafValues></_>
        <_>
          <internalNodes>
            0 -1 323 1.8076159060001373e-01</internalNodes>
          <leafValues>
            3.7036959081888199e-02 -1.</leafValues></_>
        <_>
          <internalNodes>
            0 -1 145 -2.8263189597055316e-04</internalNodes>
          <leafValues>
            1.5915217995643616e-01 -2.0429061353206635e-01</leafValues></_></weakClassifiers></_>
    <!-- stage 11 -->
    <_>
      <maxWeakCount>58</maxWeakCount>
      <stageThreshold>-1.0120561122894287e+00</stageThreshold>
      <weakClassifiers>
        <_>
          <internalNodes>
            0 -1 495 2.4210395291447639e-02</internalNodes>
          <leafValues>
            -3.7809753417968750e-01 2.3232322931289673e-01</leafValues></_>
        <_>
          <internalNodes>
            0 -1 94 1.0857147164642811e-02</internalNodes>
          <leafValues>
            5.3179875016212463e-02 -4.4043454527854919e-01</leafValues></_>
        <_>
          <internalNodes>
            0 -1 369 -5.9116436168551445e-03</internalNodes>
          <leafValues>
            4.6890261769294739e-01 -6.8094037473201752e-02</leafValues></_>
        <_>
          <internalNodes>
            0 -1 349 -1.7602953314781189e-01</internalNodes>
          <leafValues>
            3.8481947779655457e-01 -7.3750391602516174e-02</leafValues></_>
        <_>
          <internalNodes>
            0 -1 210 -4.0213115513324738e-02</internalNodes>
          <leafValues>
            -5.8066612482070923e-01 1.0157022625207901e-01</leafValues></_>
        <_>
          <internalNodes>
            0 -1 118 -6.6511880140751600e-04</internalNodes>
          <leafValues>
            1.6363100707530975e-01 -2.3271194100379944e-01</leafValues></_>
        <_>
          <internalNodes>
            0 -1 287 -6.6875994205474854e-02</internalNodes>
          <leafValues>
            -5.2401804924011230e-01 8.1043563783168793e-02</leafValues></_>
        <_>
          <internalNodes>
            0 -1 7 -6.0635775327682495e-02</internalNodes>
          <leafValues>
            -3.8352936506271362e-01 7.4788786470890045e-02</leafValues></_>
        <_>
          <internalNodes>
            0 -1 45 -1.2824171781539917e-01</internalNodes>
          <leafValues>
            4.3041682243347168e-01 -6.9266788661479950e-02</leafValues></_>
        <_>
          <internalNodes>
            0 -1 431 6.0887727886438370e-04</internalNodes>
          <leafValues>
            7.1949042379856110e-02 -3.8778820633888245e-01</leafValues></_>
        <_>
          <internalNodes>
            0 -1 178 -1.0116113349795341e-02</internalNodes>
          <leafValues>
            3.1974974274635315e-01 -9.3857958912849426e-02</leafValues></_>
        <_>
          <internalNodes>
            0 -1 274 -3.8206388126127422e-04</internalNodes>
          <leafValues>
            1.7286410927772522e-01 -1.6996315121650696e-01</leafValues></_>
        <_>
          <internalNodes>
            0 -1 471 -2.7597300708293915e-02</internalNodes>
          <leafValues>
            -9.2873787879943848e-01 2.6685746386647224e-02</leafValues></_>
        <_>
          <internalNodes>
            0 -1 308 -1.0010316967964172e-02</internalNodes>
          <leafValues>
            4.2883291840553284e-01 -6.8502470850944519e-02</leafValues></_>
        <_>
          <internalNodes>
            0 -1 195 -1.7936656251549721e-02</internalNodes>
          <leafValues>
            -9.5598649978637695e-01 3.3032961189746857e-02</leafValues></_>
        <_>
          <internalNodes>
            0 -1 652 5.3055593743920326e-03</internalNodes>
          <leafValues>
            2.5912994518876076e-02 -7.4701637029647827e-01</leafValues></_>
        <_>
          <internalNodes>
            0 -1 517 4.4792764820158482e-03</internalNodes>
          <leafValues>
            -9.2053249478340149e-02 3.5398393869400024e-01</leafValues></_>
        <_>
          <internalNodes>
            0 -1 676 2.1412202622741461e-03</internalNodes>
          <leafValues>
            3.2772649079561234e-02 -8.5096436738967896e-01</leafValues></_>
        <_>
          <internalNodes>
            0 -1 697 -2.3482707329094410e-03</internalNodes>
          <leafValues>
            3.1921130418777466e-01 -1.0011109709739685e-01</leafValues></_>
        <_>
          <internalNodes>
            0 -1 487 -1.7837886698544025e-03</internalNodes>
          <leafValues>
            -6.6112905740737915e-01 3.9845470339059830e-02</leafValues></_>
        <_>
          <internalNodes>
            0 -1 294 3.2395715825259686e-03</internalNodes>
          <leafValues>
            -1.1339781433343887e-01 3.0973696708679199e-01</leafValues></_>
        <_>
          <internalNodes>
            0 -1 117 7.2209369391202927e-03</internalNodes>
          <leafValues>
            3.7470255047082901e-02 -8.2690447568893433e-01</leafValues></_>
        <_>
          <internalNodes>
            0 -1 221 -5.4697364568710327e-02</internalNodes>
          <leafValues>
            -9.6030658483505249e-01 1.8478991463780403e-02</leafValues></_>
        <_>
          <internalNodes>
            0 -1 504 4.5443898998200893e-03</internalNodes>
          <leafValues>
            3.3044625073671341e-02 -6.6510528326034546e-01</leafValues></_>
        <_>
          <internalNodes>
            0 -1 408 2.5152591988444328e-03</internalNodes>
          <leafValues>
            -6.1958253383636475e-02 5.6386280059814453e-01</leafValues></_>
        <_>
          <internalNodes>
            0 -1 524 -6.2265405431389809e-03</internalNodes>
          <leafValues>
            -3.7854537367820740e-01 8.5874691605567932e-02</leafValues></_>
        <_>
          <internalNodes>
            0 -1 626 -2.6175172024522908e-05</internalNodes>
          <leafValues>
            2.0696666836738586e-01 -1.6944392025470734e-01</leafValues></_>
        <_>
          <internalNodes>
            0 -1 688 -4.9297111108899117e-03</internalNodes>
          <leafValues>
            5.3268682956695557e-01 -5.5959247052669525e-02</leafValues></_>
        <_>
          <internalNodes>
            0 -1 686 2.3471771273761988e-03</internalNodes>
          <leafValues>
            -1.0837209969758987e-01 3.2138490676879883e-01</leafValues></_>
        <_>
          <internalNodes>
            0 -1 89 -2.4587602820247412e-04</internalNodes>
          <leafValues>
            -2.6466196775436401e-01 1.1304466426372528e-01</leafValues></_>
        <_>
          <internalNodes>
            0 -1 432 -2.5266073644161224e-03</internalNodes>
          <leafValues>
            -3.1840059161186218e-01 9.1938361525535583e-02</leafValues></_>
        <_>
          <internalNodes>
            0 -1 684 -1.0672490112483501e-02</internalNodes>
          <leafValues>
            1.8898829817771912e-01 -1.5889908373355865e-01</leafValues></_>
        <_>
          <internalNodes>
            0 -1 285 7.1919197216629982e-04</internalNodes>
          <leafValues>
            -1.2263740599155426e-01 2.2855475544929504e-01</leafValues></_>
        <_>
          <internalNodes>
            0 -1 186 3.6022022366523743e-02</internalNodes>
          <leafValues>
            -1.3253080844879150e-01 2.4856525659561157e-01</leafValues></_>
        <_>
          <internalNodes>
            0 -1 548 1.2625692761503160e-04</internalNodes>
          <leafValues>
            1.2877003848552704e-01 -2.4901957809925079e-01</leafValues></_>
        <_>
          <internalNodes>
            0 -1 424 -2.6453583268448710e-04</internalNodes>
          <leafValues>
            1.9152204692363739e-01 -1.6769690811634064e-01</leafValues></_>
        <_>
          <internalNodes>
            0 -1 418 -3.7291787564754486e-02</internalNodes>
          <leafValues>
            -3.8784545660018921e-01 8.4268257021903992e-02</leafValues></_>
        <_>
          <internalNodes>
            0 -1 482 -1.7296636942774057e-03</internalNodes>
          <leafValues>
            2.5796225666999817e-01 -1.2945818901062012e-01</leafValues></_>
        <_>
          <internalNodes>
            0 -1 577 -2.7093817479908466e-03</internalNodes>
          <leafValues>
            2.6740053296089172e-01 -1.0926757007837296e-01</leafValues></_>
        <_>
          <internalNodes>
            0 -1 83 -1.3483844231814146e-03</internalNodes>
          <leafValues>
            -4.1342139244079590e-01 7.2672851383686066e-02</leafValues></_>
        <_>
          <internalNodes>
            0 -1 153 -1.5911867842078209e-02</internalNodes>
          <leafValues>
            -5.6449937820434570e-01 4.8260360956192017e-02</leafValues></_>
        <_>
          <internalNodes>
            0 -1 312 -2.6733160484582186e-03</internalNodes>
          <leafValues>
            3.4322115778923035e-01 -9.3038223683834076e-02</leafValues></_>
        <_>
          <internalNodes>
            0 -1 402 -4.3853446841239929e-03</internalNodes>
          <leafValues>
            3.0586725473403931e-01 -1.0020699352025986e-01</leafValues></_>
        <_>
          <internalNodes>
            0 -1 721 1.7692307010293007e-03</internalNodes>
          <leafValues>
            7.4971601366996765e-02 -4.0982076525688171e-01</leafValues></_>
        <_>
          <internalNodes>
            0 -1 443 -3.6497980356216431e-02</internalNodes>
          <leafValues>
            -7.3698675632476807e-01 3.6074429750442505e-02</leafValues></_>
        <_>
          <internalNodes>
            0 -1 203 2.7593483682721853e-03</internalNodes>
          <leafValues>
            -4.2598214000463486e-02 8.7085455656051636e-01</leafValues></_>
        <_>
          <internalNodes>
            0 -1 608 -6.5846871584653854e-03</internalNodes>
          <leafValues>
            -6.8420392274856567e-01 4.8361092805862427e-02</leafValues></_>
        <_>
          <internalNodes>
            0 -1 590 -4.2760400101542473e-03</internalNodes>
          <leafValues>
            4.2869171500205994e-01 -8.5002802312374115e-02</leafValues></_>
        <_>
          <internalNodes>
            0 -1 528 -1.7024299502372742e-01</internalNodes>
          <leafValues>
            8.0765402317047119e-01 -3.3786799758672714e-02</leafValues></_>
        <_>
          <internalNodes>
            0 -1 245 1.0777182132005692e-01</internalNodes>
          <leafValues>
            -5.0201900303363800e-02 5.0883406400680542e-01</leafValues></_>
        <_>
          <internalNodes>
            0 -1 63 1.6113276360556483e-03</internalNodes>
          <leafValues>
            4.0354494005441666e-02 -7.2304725646972656e-01</leafValues></_>
        <_>
          <internalNodes>
            0 -1 539 1.5030900249257684e-04</internalNodes>
          <leafValues>
            -1.4542314410209656e-01 2.0406557619571686e-01</leafValues></_>
        <_>
          <internalNodes>
            0 -1 166 3.2478675246238708e-02</internalNodes>
          <leafValues>
            8.0222621560096741e-02 -4.1251039505004883e-01</leafValues></_>
        <_>
          <internalNodes>
            0 -1 72 -8.4473419701680541e-04</internalNodes>
          <leafValues>
            1.7086370289325714e-01 -1.8619182705879211e-01</leafValues></_>
        <_>
          <internalNodes>
            0 -1 160 8.4268994396552444e-04</internalNodes>
          <leafValues>
            -1.4497017860412598e-01 2.6675519347190857e-01</leafValues></_>
        <_>
